Cufon.registerFont({"w":850,"face":{"font-family":"LithosPro","font-weight":400,"font-stretch":"normal","units-per-em":"1000","panose-1":"4 2 5 5 3 14 2 2 10 4","ascent":"727","descent":"-273","x-height":"14","bbox":"-173 -920 1343 254","underline-thickness":"50","underline-position":"-100","stemh":"60","stemv":"87","unicode-range":"U+0020-U+FB02"},"glyphs":{" ":{"w":300},"!":{"d":"87,0r0,-98r100,0r0,98r-100,0xm166,-224r-56,8v-4,-141,2,-380,-4,-489r107,5v-10,84,-38,340,-47,476","w":300},"\"":{"d":"182,-716r85,0r-21,200r-44,0xm38,-716r85,0r-21,200r-44,0","w":305},"#":{"d":"471,-397r-91,0r-18,139r85,0r0,65r-96,0r-25,193r-66,0r26,-193r-101,0r-26,193r-65,0r25,-193r-82,0r0,-65r93,0r18,-139r-86,0r0,-65r96,0r25,-188r65,0r-26,188r102,0r26,-188r65,0r-26,188r82,0r0,65xm314,-397r-101,0r-18,139r101,0","w":507},"$":{"d":"303,-787r73,0r-3,114v18,-9,87,-27,103,-28r10,80v-79,-1,-206,52,-206,115v0,47,37,72,113,109v67,34,128,68,128,144v0,82,-98,160,-148,182r3,156r-73,0r3,-133v-24,9,-80,23,-98,25r-14,-77v142,-12,231,-80,231,-130v0,-45,-23,-68,-97,-108v-76,-41,-144,-83,-144,-150v0,-71,74,-125,122,-154","w":707},"%":{"d":"231,-321v-128,0,-191,-86,-191,-182v0,-87,73,-197,208,-197v110,0,185,62,185,188v0,63,-51,191,-202,191xm233,-377v68,0,124,-50,124,-133v0,-92,-53,-134,-115,-134v-90,0,-127,81,-127,138v0,66,46,129,118,129xm701,0v-128,0,-191,-86,-191,-182v0,-87,73,-197,208,-197v110,0,185,62,185,188v0,63,-51,191,-202,191xm703,-52v68,0,124,-49,124,-132v0,-93,-53,-135,-115,-135v-90,0,-127,81,-127,138v0,66,46,129,118,129xm290,21r-61,-42v35,-50,131,-212,229,-369v88,-141,174,-278,203,-331r63,35r-217,338","w":943},"&":{"d":"226,-59v73,0,130,-27,186,-80v-82,-63,-172,-139,-211,-178v-50,38,-93,91,-93,156v0,54,43,102,118,102xm636,-66r-54,66v-28,-22,-71,-54,-118,-93v-65,63,-148,109,-256,109v-101,0,-190,-66,-190,-163v0,-95,84,-175,134,-218v-157,-148,29,-311,212,-353r22,76v-62,10,-203,59,-203,143v0,59,58,109,120,166v35,32,97,84,166,137v42,-52,67,-93,83,-116r64,47v-26,34,-55,74,-93,112v50,39,92,69,113,87","w":615},"\u2019":{"d":"10,-525r56,-191r80,36r-97,173","w":160},"(":{"d":"248,-776r48,60v-49,25,-177,154,-177,376v0,182,108,321,177,356r-48,64v-76,-49,-210,-195,-210,-410v0,-232,134,-394,210,-446","w":300},")":{"d":"52,80r-48,-60v49,-25,177,-154,177,-376v0,-182,-108,-321,-177,-356r48,-64v76,49,210,195,210,410v0,232,-134,394,-210,446","w":300},"*":{"d":"314,-609r3,61v-14,-1,-95,-7,-99,-5v4,5,54,74,63,86r-62,31v-6,-21,-38,-129,-40,-138v28,-5,111,-29,135,-35xm69,-680r55,-42v8,16,48,96,51,99v4,-6,36,-80,43,-99r57,38v-12,13,-95,98,-101,105v-20,-21,-92,-91,-105,-101xm129,-436r-60,-27v10,-15,59,-86,62,-91v-6,1,-85,7,-99,9r5,-65v16,5,123,33,132,36v-7,26,-35,114,-40,138","w":350},"+":{"d":"263,-532r70,0r0,232r223,0r0,66r-223,0r0,234r-70,0r0,-234r-223,0r0,-66r223,0r0,-232","w":596},",":{"d":"54,101r65,-227r98,44r-123,202","w":270},"-":{"d":"29,-305r-5,-75v51,1,281,3,299,2r3,63v-16,-3,-259,7,-297,10","w":350},".":{"d":"79,0r0,-111r112,0r0,111r-112,0","w":270},"\/":{"d":"-78,-23r425,-673r67,37v-92,124,-319,494,-427,679","w":339},"0":{"d":"342,-17v-151,0,-306,-110,-306,-332v0,-202,156,-335,325,-335v178,0,310,133,310,327v0,174,-128,340,-329,340xm356,-95v101,0,227,-85,227,-266v0,-131,-101,-245,-231,-245v-131,0,-228,110,-228,262v0,117,78,249,232,249","w":707},"1":{"d":"424,0r-94,0v0,-26,6,-152,6,-287r0,-259v-29,34,-106,108,-135,138r-45,-54v19,-17,242,-225,271,-258r3,0v0,33,-8,166,-8,301","w":707},"2":{"d":"561,-78r0,86v-39,-4,-354,-9,-489,-8r-2,-10v134,-91,354,-256,354,-417v0,-140,-160,-202,-278,-208r18,-82v227,27,357,148,357,281v0,162,-171,294,-259,365r1,4","w":707},"3":{"d":"188,-645r12,-77v116,6,302,70,302,189v1,73,-76,137,-124,163v78,20,146,66,146,146v0,136,-194,244,-377,249r-6,-81v114,8,281,-47,281,-163v0,-90,-136,-124,-211,-127r0,-30v81,-8,198,-63,198,-141v0,-83,-118,-127,-221,-128","w":707},"4":{"d":"499,-731r0,498r109,-3r-7,75r-103,-3r2,164r-89,0r5,-163r-356,0r-2,-8r435,-560r6,0xm418,-234r0,-297r-2,0v-33,50,-185,247,-221,297r223,0","w":707},"5":{"d":"270,-625r-19,108v220,37,268,131,268,213v0,150,-193,292,-352,326r-22,-78v109,-20,279,-102,279,-232v0,-87,-98,-144,-256,-159r41,-251v30,-1,269,-8,321,-12r-1,87","w":707},"6":{"d":"335,16v-127,0,-205,-94,-202,-232v0,-198,159,-414,295,-510r52,69v-51,30,-150,117,-199,219v167,-6,294,84,294,210v0,144,-122,244,-240,244xm223,-222v0,102,50,165,119,165v83,0,139,-71,139,-151v0,-111,-114,-169,-231,-161v-18,42,-27,84,-27,147","w":707},"7":{"d":"127,-625r-4,-84v74,3,362,9,457,9r2,3v-16,26,-257,658,-278,713r-88,-43v21,-31,246,-571,256,-596","w":707},"8":{"d":"354,-651v-175,1,-159,254,-5,257v72,0,128,-50,128,-131v0,-83,-57,-126,-123,-126xm363,-716v121,0,206,71,206,178v0,58,-34,133,-114,169v79,33,124,97,124,180v0,84,-68,205,-233,205v-150,0,-218,-88,-218,-191v0,-75,50,-148,117,-185v-66,-27,-109,-91,-109,-161v0,-90,80,-196,227,-195xm351,-49v78,0,133,-53,133,-134v0,-89,-59,-144,-134,-144v-84,0,-129,70,-129,149v0,66,50,129,130,129","w":707},"9":{"d":"284,26r-52,-69v51,-31,145,-117,197,-227v-169,8,-296,-81,-296,-206v0,-134,113,-240,233,-240v127,0,208,96,208,227v0,210,-154,419,-290,515xm480,-475v0,-112,-49,-169,-120,-169v-79,0,-134,71,-134,149v0,116,111,169,231,158v12,-30,23,-82,23,-138","w":707},":":{"d":"81,-40r0,-107r108,0r0,107r-108,0xm81,-388r0,-107r108,0r0,107r-108,0","w":270},";":{"d":"56,60r46,-216r92,41r-101,190xm81,-388r0,-107r108,0r0,107r-108,0","w":270},"<":{"d":"65,-236r0,-60r467,-236r0,76r-386,189r0,2r386,189r0,76","w":596},"=":{"d":"556,-335r-516,0r0,-66r516,0r0,66xm556,-137r-516,0r0,-66r516,0r0,66","w":596},">":{"d":"532,-298r0,64r-468,234r0,-76r390,-189r0,-2r-390,-189r0,-76","w":596},"?":{"d":"33,-643r23,-77v162,30,321,110,321,227v0,146,-169,237,-242,269r-29,-64v65,-22,174,-86,174,-183v0,-115,-140,-160,-247,-172xm107,0r0,-98r100,0r0,98r-100,0","w":430},"@":{"d":"339,-319r116,-2v-7,-15,-54,-103,-58,-112v-7,12,-50,99,-58,114xm609,-156v-71,4,-105,-68,-130,-115r-161,4v-8,15,-39,81,-46,96r-60,-34v28,-47,166,-305,179,-325r15,0v40,68,128,229,153,270v18,30,34,47,55,47v39,0,53,-49,53,-123v0,-154,-117,-277,-263,-277v-164,0,-276,137,-276,301v0,159,115,275,265,275v68,0,124,-21,172,-50r26,56v-58,32,-121,49,-199,49v-193,0,-336,-134,-336,-325v0,-196,152,-361,349,-361v191,0,330,139,330,326v2,97,-43,183,-126,186","w":791},"A":{"d":"102,19r-82,-52v57,-96,340,-667,369,-702v88,142,325,593,393,697r-85,56v-20,-38,-126,-243,-137,-259r-347,14v-12,19,-94,212,-111,246xm247,-293r283,-12v-11,-22,-134,-255,-144,-271v-15,22,-130,267,-139,283","w":800},"B":{"d":"150,-370r0,-111v0,-30,-2,-198,-5,-219v53,0,99,1,138,6v202,17,230,95,230,151v0,38,-20,107,-126,156r0,2v69,11,157,66,157,156v1,121,-158,237,-399,235v5,-55,5,-357,5,-376xm236,-336r0,270v109,-11,208,-63,208,-157v0,-70,-82,-119,-208,-113xm236,-636r0,243v110,-3,183,-70,183,-137v0,-90,-114,-104,-183,-106","w":640},"C":{"d":"612,-74r10,80v-30,6,-76,10,-136,10v-341,0,-426,-204,-426,-296v0,-164,151,-373,504,-436r15,84v-229,26,-418,163,-418,335v0,122,96,237,335,237v40,0,82,-6,116,-14","w":660},"D":{"d":"150,-316r0,-124v0,-21,-1,-232,-5,-260v57,0,168,-1,255,10v326,41,366,186,366,256v0,310,-394,439,-622,439v4,-46,6,-294,6,-321xm240,-625r0,542v273,-24,428,-185,428,-325v0,-152,-169,-220,-428,-217","w":826},"E":{"d":"480,-76r4,86v-16,0,-317,-10,-337,-10r3,-424v0,-16,-2,-257,-3,-276v24,0,285,-15,317,-19r4,79v-32,0,-212,5,-228,5r0,254v18,0,146,-5,195,-11r3,79v-22,0,-178,-4,-198,-4r0,244v24,0,158,3,240,-3","w":574},"F":{"d":"243,0r-101,0v15,-239,7,-462,4,-700v25,0,276,-11,316,-15r4,77r-226,5r0,255v18,0,160,-6,207,-9r3,77r-210,-4r0,95v0,16,-1,205,3,219","w":536},"G":{"d":"651,-306r-1,150v0,38,3,127,3,140v-45,17,-138,32,-221,32v-227,0,-372,-127,-372,-292v0,-113,117,-341,495,-443r20,87v-228,44,-416,198,-416,357v0,104,96,220,294,220v42,0,83,-7,107,-15r0,-167v0,-29,-2,-63,-3,-69r94,0","w":740},"H":{"d":"244,0r-97,0r3,-412v0,-17,-3,-264,-5,-288r100,0r-5,318r446,-19r-4,-299r102,0v-3,24,-8,294,-8,318r4,382r-100,0v3,-34,6,-212,6,-231r0,-104r-446,19","w":926},"I":{"d":"245,-700v-7,108,-6,579,-1,700r-97,0r3,-412v0,-17,-3,-264,-5,-288r100,0","w":390},"J":{"d":"282,-700v-4,34,-6,297,-5,396v0,218,-96,322,-198,368r-46,-72v94,-43,154,-122,154,-298r0,-156v0,-17,-3,-214,-5,-238r100,0","w":406},"K":{"d":"245,10r-100,0v7,-132,5,-576,0,-720r100,0r-5,400v0,77,3,301,5,320xm667,-66r-66,70v-10,-14,-311,-324,-354,-372v17,-16,303,-298,326,-324r58,66v-38,36,-219,198,-272,251v31,38,270,272,308,309","w":722},"L":{"d":"146,-700r102,0v-9,99,-8,465,-8,628v24,0,142,0,238,-4r0,86v-14,0,-311,-10,-336,-10v15,-239,7,-462,4,-700","w":533},"M":{"d":"124,26r-82,-31v21,-42,229,-690,240,-711v31,63,219,433,249,483v37,-56,240,-424,264,-452v35,82,214,569,257,674r-86,37v-25,-75,-178,-494,-194,-531v-38,55,-210,372,-256,434v-58,-108,-182,-351,-222,-442","w":1093},"N":{"d":"211,7r-94,-7v5,-75,32,-637,37,-740v33,30,511,535,546,567v0,-28,6,-499,7,-532r93,5v-6,58,-19,476,-29,721v-29,-27,-530,-548,-553,-571v0,35,-8,524,-7,557","w":915},"O":{"d":"402,16v-218,0,-342,-154,-342,-330v0,-222,157,-402,398,-402v189,0,332,125,332,341v0,156,-104,391,-388,391xm411,-58v150,0,282,-115,282,-312v0,-179,-118,-272,-249,-272v-179,0,-288,142,-288,313v0,149,98,271,255,271"},"P":{"d":"240,0r-94,0r5,-465v0,-23,-3,-220,-3,-235v42,0,126,3,188,13v134,22,218,86,218,192v0,137,-126,248,-316,286xm238,-626r0,347v126,-27,219,-91,219,-201v0,-30,-17,-143,-219,-146","w":614},"Q":{"d":"808,5r-18,87r-345,-70v-24,-5,-42,-7,-54,-7v-24,0,-152,-7,-237,-93v-58,-58,-94,-139,-94,-245v0,-216,166,-393,393,-393v193,0,336,124,336,329v0,129,-61,290,-241,361r0,4v94,9,190,22,260,27xm155,-332v0,153,102,277,253,277v163,0,285,-135,285,-323v0,-178,-130,-266,-246,-266v-218,0,-292,186,-292,312","w":849},"R":{"d":"240,-633r0,327v0,38,3,291,5,306r-97,0v5,-84,1,-362,2,-444v0,-30,-2,-237,-5,-256v47,0,131,1,208,10v132,16,207,72,207,157v0,85,-57,151,-139,203v25,34,205,257,233,287r-76,61v-11,-14,-236,-309,-266,-351v50,-27,150,-88,150,-186v0,-45,-33,-112,-222,-114","w":692},"S":{"d":"146,18r-26,-75v98,-20,223,-70,223,-151v0,-50,-32,-76,-104,-115v-85,-46,-144,-88,-144,-159v0,-106,148,-205,285,-236r21,77v-61,10,-209,58,-209,142v0,52,71,84,113,109v76,45,137,77,137,158v0,98,-104,205,-296,250","w":527},"T":{"d":"382,0r-108,0v7,-58,6,-465,6,-626v-115,0,-257,5,-283,9r0,-85v230,17,426,17,656,0r0,85v-14,-4,-199,-9,-283,-9r0,165v0,203,10,441,12,461","w":650},"U":{"d":"206,-695v-3,22,-6,161,-5,232v0,162,7,236,46,305v39,68,101,97,173,97v86,0,141,-43,174,-95v68,-93,49,-388,43,-554r95,0v-2,233,23,507,-85,620v-59,72,-134,106,-240,106v-54,0,-163,-8,-233,-119v-47,-75,-64,-153,-64,-396r1,-196r95,0","w":833},"V":{"d":"655,-716r82,48v-37,52,-337,635,-378,701v-21,-31,-314,-655,-344,-701r86,-48v16,45,249,534,269,565v17,-24,273,-533,285,-565","w":735},"W":{"d":"977,-700r84,35v-13,26,-250,612,-282,666v-36,-70,-213,-364,-239,-414r-248,448r-2,0v-31,-80,-206,-594,-247,-708r87,-37v33,115,167,506,183,560v25,-55,161,-296,230,-422r2,0r231,401v16,-49,181,-473,201,-529","w":1070},"X":{"d":"120,18r-65,-66v24,-23,239,-274,270,-311r-236,-276r73,-67v26,36,150,194,223,282v34,-38,212,-248,240,-284r68,68v-35,33,-235,242,-258,275v30,33,234,264,270,309r-72,68v-23,-32,-233,-289,-258,-317v-12,15,-242,301,-255,319","w":757},"Y":{"d":"695,-638v-150,43,-309,231,-306,421r0,94v0,14,3,103,5,123r-100,0r5,-217v0,-130,-61,-235,-129,-310v-40,-45,-93,-88,-147,-111r41,-78v64,33,130,88,156,117v49,53,105,136,132,215v52,-154,168,-274,313,-332","w":684},"Z":{"d":"92,-643r4,-76v65,8,533,20,555,26v-46,50,-436,613,-446,627v54,0,387,-3,415,-7r-4,83v-24,-2,-524,-6,-571,-12v45,-44,429,-599,453,-632v-39,0,-377,-9,-406,-9","w":688},"[":{"d":"106,-764r222,-22r5,70r-139,5r-4,375v0,118,1,236,4,354r134,-2r5,70r-227,-8r4,-482v0,-120,0,-240,-4,-360","w":350},"\\":{"d":"-8,-696r425,673r-65,43r-214,-356v-90,-143,-184,-283,-213,-323","w":339},"]":{"d":"244,64r-222,22r-5,-70r139,-5r4,-375v0,-118,-1,-236,-4,-354r-134,2r-5,-70r227,8r-4,482v0,120,0,240,4,360","w":350},"^":{"d":"539,-187r-77,0r-163,-382r-3,0r-163,382r-76,0r207,-463r68,0","w":596},"_":{"d":"0,125r0,-50r500,0r0,50r-500,0","w":500},"\u2018":{"d":"94,-716r56,191r-39,18r-97,-173","w":160},"a":{"d":"91,18r-77,-44v48,-85,308,-566,328,-599r2,0v77,121,293,504,352,593r-81,49v-16,-32,-110,-200,-119,-215r-309,12v-12,27,-82,175,-96,204xm221,-249r244,-10v-10,-19,-115,-211,-124,-225v-13,20,-112,221,-120,235","w":710},"b":{"d":"132,-315r0,-94v0,-25,-2,-168,-5,-186v48,0,108,0,144,3v183,14,212,83,212,130v0,33,-23,97,-121,135r0,2v67,9,149,54,149,130v4,118,-153,205,-384,200v5,-47,5,-303,5,-320xm216,-283r0,223v101,-7,202,-44,202,-130v0,-66,-89,-98,-202,-93xm216,-536r0,199v99,-1,179,-57,179,-114v0,-76,-115,-86,-179,-85","w":580},"c":{"d":"547,-68r9,75v-17,3,-59,7,-114,7v-310,0,-386,-170,-386,-252v0,-144,136,-317,447,-372r14,76v-198,24,-368,134,-368,282v0,100,85,194,302,194v37,0,75,-5,96,-10","w":587},"d":{"d":"132,-269r0,-105v0,-18,-1,-197,-5,-221v52,0,145,-1,224,5v297,23,323,164,323,223v0,272,-309,371,-548,371v4,-39,6,-250,6,-273xm218,-528r0,458v244,-16,364,-153,364,-277v0,-131,-135,-185,-364,-181","w":722},"e":{"d":"448,-67r3,76v-30,0,-304,-9,-322,-9r3,-360v0,-14,-2,-219,-3,-235v22,0,259,-13,304,-16r4,72v-39,0,-203,4,-218,4r0,208v17,0,133,-4,188,-9r3,73r-191,-3r0,202v22,0,144,2,229,-3","w":528},"f":{"d":"222,0r-98,0v15,-202,7,-392,4,-595v23,0,251,-9,303,-13r4,72r-216,4r0,208v17,0,146,-5,199,-8r3,71r-202,-3r0,78v0,13,-1,174,3,186","w":495},"g":{"d":"582,-260r2,247v-41,15,-125,27,-201,27v-206,0,-328,-108,-328,-249v0,-100,106,-289,440,-376r18,78v-197,37,-365,164,-365,299v0,89,74,183,254,183v38,0,76,-5,94,-12r0,-138v0,-25,-2,-54,-3,-59r89,0","w":658},"h":{"d":"223,0r-94,0r3,-350v0,-15,-3,-225,-5,-245r97,0r-5,266r385,-16r-3,-250r97,0r-7,355v0,11,2,224,4,240r-96,0r5,-282r-385,16","w":823},"i":{"d":"224,-595v-7,92,-6,492,-1,595r-94,0r3,-350v0,-15,-3,-225,-5,-245r97,0","w":352},"j":{"d":"257,-595v-4,28,-6,253,-5,337v0,185,-90,279,-183,318r-44,-67v86,-36,140,-104,140,-253r-4,-335r96,0","w":365},"k":{"d":"223,9r-96,0v7,-113,5,-490,0,-613r96,0r-5,340v0,66,3,256,5,273xm607,-60r-62,68v-11,-12,-281,-279,-320,-321v15,-14,275,-257,296,-279r53,65v-36,28,-196,163,-245,208v28,33,242,227,278,259","w":658},"l":{"d":"128,-595r99,0v-9,82,-8,390,-8,528v22,0,130,0,227,-4r0,80v-29,0,-299,-9,-322,-9v15,-202,7,-392,4,-595","w":492},"m":{"d":"112,22r-82,-26v15,-36,200,-584,205,-605r4,0v27,54,191,364,218,413r232,-387r3,0v27,69,184,484,221,574r-83,31v-21,-64,-145,-412,-157,-445r-226,369r-2,0r-197,-371v-16,53,-127,414,-136,447","w":940},"n":{"d":"193,6r-92,-6v5,-64,30,-541,34,-629r5,0v26,28,443,448,471,475v0,-24,2,-417,3,-445r89,4v-4,51,-21,399,-25,613r-4,0v-28,-23,-461,-462,-477,-472v2,16,-5,432,-4,460","w":803},"o":{"d":"363,14v-199,0,-308,-131,-308,-281v0,-189,139,-342,359,-342v176,0,305,107,305,290v0,133,-94,333,-356,333xm371,-52v137,0,255,-95,255,-263v0,-152,-106,-228,-225,-228v-159,0,-254,118,-254,263v0,127,85,228,224,228","w":774},"p":{"d":"219,0r-91,0r4,-395v0,-20,-2,-187,-2,-200v38,0,123,1,180,10v122,19,197,74,197,164v0,122,-119,215,-289,245xm218,-528r0,286v108,-21,197,-71,197,-169v0,-31,-20,-115,-197,-117","w":560},"q":{"d":"719,82r-359,-69v-22,0,-141,-8,-218,-81v-51,-49,-87,-116,-87,-207v0,-183,148,-334,357,-334v176,0,306,106,306,280v0,110,-58,250,-214,306r0,3v80,8,168,17,231,21xm147,-282v0,130,89,229,224,229v147,0,255,-109,255,-268v0,-152,-116,-222,-219,-222v-197,0,-260,154,-260,261","w":773},"r":{"d":"219,-530r0,270v0,32,3,247,5,260r-94,0r2,-377v0,-26,-2,-202,-5,-218v43,0,122,-2,198,7v120,14,190,63,190,137v0,70,-54,130,-129,174v23,31,184,207,210,232r-69,61v-10,-12,-216,-264,-243,-300v45,-23,136,-69,136,-154v0,-40,-31,-91,-201,-92","w":616},"s":{"d":"128,16r-23,-70v92,-18,209,-55,209,-123v0,-44,-31,-65,-97,-97v-78,-38,-135,-74,-135,-136v0,-95,139,-178,268,-201r19,70v-59,9,-195,43,-195,117v0,46,65,69,104,91v69,38,129,65,129,136v0,88,-101,177,-279,213","w":480},"t":{"d":"338,0r-104,0v7,-45,6,-391,6,-524v-103,0,-232,4,-245,8r0,-81v189,14,385,15,575,0r0,81v-2,-4,-170,-8,-243,-8r0,132v0,173,9,375,11,392","w":565},"u":{"d":"184,-591v-2,18,-5,137,-4,197v0,138,8,201,42,257v35,57,86,82,151,82v78,0,123,-36,153,-81v60,-76,42,-328,38,-468r91,0v-1,202,19,431,-79,527v-54,62,-118,91,-215,91v-49,0,-144,-7,-208,-102v-47,-52,-63,-188,-60,-382v0,-39,1,-101,1,-121r90,0","w":740},"v":{"d":"576,-610r80,42v-31,44,-302,540,-339,596v-17,-28,-284,-557,-308,-596r83,-42v14,39,216,453,234,480v15,-21,239,-452,250,-480","w":655},"w":{"d":"858,-599r84,34v-8,22,-225,517,-250,566r-4,0v-34,-60,-189,-303,-213,-345r-218,374r-4,0v-28,-68,-188,-505,-223,-602r86,-34v29,98,143,426,158,471r204,-358r2,0r207,340v15,-42,156,-398,171,-446","w":945},"x":{"d":"98,18r-63,-59v24,-19,216,-232,244,-264r-211,-232r66,-63v24,31,133,165,199,241v31,-33,188,-210,214,-240r61,60v-29,28,-207,204,-229,232r243,263r-69,61r-229,-271v-10,15,-210,256,-226,272","w":659},"y":{"d":"600,-533v-120,34,-272,193,-264,352r0,76v0,12,3,88,5,105r-96,0r4,-181v-1,-170,-120,-293,-237,-350r37,-73v48,24,108,69,131,94v44,45,97,114,120,183v44,-128,155,-233,274,-279","w":585},"z":{"d":"77,-538r4,-73v51,7,477,16,487,22r-393,529v49,0,349,-3,370,-6r-3,75v-19,-2,-474,-5,-512,-11v38,-40,380,-505,400,-532v-35,0,-336,-4,-353,-4","w":601},"{":{"d":"273,-781r42,60v-76,35,-96,103,-99,221v-1,58,-36,121,-83,142v51,23,82,74,82,162v0,100,27,191,100,222r-42,60v-87,-38,-135,-101,-141,-282v-4,-117,-39,-128,-102,-128r0,-57v63,0,100,-11,103,-122v5,-175,53,-234,140,-278","w":350},"|":{"d":"161,250r-74,0r0,-1000r74,0r0,1000","w":247},"}":{"d":"75,86r-40,-60v76,-35,94,-103,98,-221v2,-66,37,-127,84,-149v-51,-25,-82,-74,-82,-155v0,-100,-27,-191,-100,-222r40,-60v89,38,137,101,143,277v4,117,39,128,102,128r0,57v-63,0,-100,11,-103,122v-5,180,-53,239,-142,283","w":350},"~":{"d":"431,-202v-65,0,-195,-87,-260,-89v-34,0,-55,24,-57,84r-66,0v-3,-106,51,-157,123,-157v65,0,194,88,260,87v34,0,51,-28,52,-83r66,0v5,117,-53,158,-118,158","w":596},"\u00a1":{"d":"213,-700r0,98r-100,0r0,-98r100,0xm134,-476r56,-8v4,141,-2,380,4,489r-107,-5v10,-84,38,-340,47,-476","w":300},"\u00a2":{"d":"346,16r2,-163v-124,-29,-164,-141,-164,-186v0,-102,68,-190,164,-242r-2,-178r73,0r-3,146v30,-14,71,-24,112,-32r11,82v-178,18,-261,116,-261,211v-1,117,152,165,276,136r7,76v-45,9,-102,8,-145,3r3,147r-73,0","w":707},"\u00a3":{"d":"565,-75r0,80v-35,0,-338,-5,-398,-5v30,-103,44,-195,57,-284v-37,3,-71,5,-104,7r-1,-68v36,-1,76,-3,115,-6v22,-215,146,-335,314,-365r18,83v-113,15,-198,42,-236,239v-3,13,-5,26,-8,39v77,-5,146,-10,185,-14r-4,72v-48,1,-119,3,-192,7v-12,68,-26,140,-49,220v64,0,184,-2,303,-5","w":707},"\u2044":{"d":"322,-686r-217,338r-217,369r-61,-42v35,-50,131,-212,229,-369v88,-141,174,-278,203,-331","w":150},"\u00a5":{"d":"392,0r-93,0r5,-223v-80,-1,-142,0,-166,1r-2,-66v23,1,84,2,166,1v-71,-108,-186,-289,-241,-367r74,-51v52,88,148,247,217,352r2,0v67,-106,175,-273,220,-352r72,46v-36,48,-179,264,-258,373v78,0,139,-1,166,-2r2,66v-25,-1,-88,-2,-169,-2r0,92v0,15,3,111,5,132","w":707},"\u0192":{"d":"329,0r-89,0r0,-47v0,-28,-1,-230,13,-335v28,-207,152,-303,296,-334r17,88v-76,5,-198,25,-227,256v-1,9,-2,21,-3,36v47,0,147,-7,187,-11r-4,72v-40,1,-147,5,-186,7","w":707},"\u00a7":{"d":"295,-104v-7,-101,-257,-90,-246,-218v0,-32,18,-76,81,-106v-20,-20,-29,-38,-29,-71v1,-79,111,-154,247,-189r21,76v-115,20,-183,63,-183,109v0,37,45,55,73,67v70,34,172,48,174,144v0,37,-17,73,-83,106v23,21,30,45,30,66v-1,97,-94,166,-274,187r-17,-74v116,-5,206,-40,206,-97xm310,-217v28,-14,47,-35,47,-59v17,-53,-147,-94,-185,-123v-31,17,-48,38,-48,62v0,37,39,53,67,66v38,17,91,38,119,54","w":482},"\u00a4":{"d":"497,-524r-80,72v44,49,43,194,-1,240r77,74r-49,49r-69,-79v-60,55,-171,55,-231,3r-68,76r-47,-49r74,-71v-48,-51,-47,-194,1,-243r-77,-72r48,-50r70,77v56,-52,176,-52,231,-1r72,-76xm372,-334v0,-69,-41,-134,-114,-133v-69,0,-113,60,-113,136v0,94,63,135,113,135v54,0,114,-39,114,-138","w":521},"'":{"d":"59,-518r-23,-198r88,0r-23,198r-42,0","w":160},"\u201c":{"d":"85,-716r81,162r-37,23r-115,-137xm229,-716r65,190r-40,19r-101,-171","w":305},"\u00ab":{"d":"185,-510r50,46v-22,20,-88,92,-111,124v27,31,87,99,123,131r-51,49v-22,-28,-124,-142,-153,-175xm378,-540r50,50v-32,35,-114,118,-135,150v27,30,100,108,133,140r-48,54v-25,-31,-141,-156,-170,-189v34,-43,137,-161,170,-205","w":490},"\u2039":{"d":"208,-540r50,50v-32,35,-114,118,-135,150v27,30,100,108,133,140r-48,54v-25,-31,-141,-156,-170,-189v34,-43,137,-161,170,-205","w":320},"\u203a":{"d":"112,-146r-50,-50v32,-35,114,-118,135,-150v-27,-30,-100,-108,-133,-140r48,-54v25,31,141,156,170,189v-34,43,-137,161,-170,205","w":320},"\ufb01":{"d":"222,0r-98,0v15,-202,7,-392,4,-595v23,0,251,-9,303,-13r4,72r-216,4r0,208v17,0,146,-5,199,-8r3,71r-202,-3r0,78v0,13,-1,174,3,186xm719,-595v-7,92,-6,492,-1,595r-94,0r3,-350v0,-15,-3,-225,-5,-245r97,0","w":846},"\ufb02":{"d":"222,0r-98,0v15,-202,7,-392,4,-595v23,0,251,-9,303,-13r4,72r-216,4r0,208v17,0,146,-5,199,-8r3,71r-202,-3r0,78v0,13,-1,174,3,186xm623,-595r99,0v-9,82,-8,390,-8,528v22,0,130,0,227,-4r0,80v-29,0,-299,-9,-322,-9v15,-202,7,-392,4,-595","w":987},"\u2014":{"d":"0,-305r0,-70r311,2v22,0,171,-2,189,-2r0,70r-309,-2v-16,0,-144,-1,-191,2","w":500},"\u2020":{"d":"463,-393r-174,-8r9,450r-92,0r9,-450r-174,8r0,-80r174,8r-9,-209r92,0r-9,209r174,-8r0,80","w":505},"\u2021":{"d":"463,-145r-172,-8r7,203r-91,0r6,-203r-171,8r0,-80r172,8r0,-195r-172,8r0,-80r172,8r-7,-198r91,0r-7,198r172,-8r0,80r-172,-8r0,195r172,-8r0,80","w":505},"\u00b7":{"d":"79,-280r0,-111r112,0r0,111r-112,0","w":270},"\u00b6":{"d":"470,-677r-4,423v0,45,1,279,2,302r-73,0r1,-659r-68,5r-2,351v0,45,1,280,2,303r-73,0r2,-306v-105,-16,-217,-71,-217,-182v0,-170,202,-238,430,-237","w":572},"\u2022":{"d":"62,-375v41,-21,78,-45,103,-63v27,42,47,78,73,107v-50,31,-83,54,-120,81v-20,-47,-36,-87,-56,-125","w":300},"\u201a":{"d":"10,75r56,-191r80,36r-97,173","w":160},"\u201e":{"d":"139,46r81,-162r71,48r-115,137xm11,74r65,-190r76,38r-102,172","w":305},"\u201d":{"d":"139,-554r81,-162r71,48r-115,137xm11,-526r65,-190r76,38r-102,172","w":305},"\u00bb":{"d":"112,-146r-50,-50v32,-35,114,-118,135,-150v-27,-30,-100,-108,-133,-140r48,-54v25,31,141,156,170,189v-34,43,-137,161,-170,205xm305,-176r-50,-46v22,-20,88,-92,111,-124v-27,-31,-87,-99,-123,-131r51,-49v22,28,124,142,153,175","w":490},"\u2026":{"d":"115,0r0,-102r103,0r0,102r-103,0xm448,0r0,-102r103,0r0,102r-103,0xm781,0r0,-102r103,0r0,102r-103,0","w":1000},"\u2030":{"d":"231,-321v-128,0,-191,-86,-191,-182v0,-87,73,-197,208,-197v110,0,185,62,185,188v0,63,-51,191,-202,191xm233,-377v68,0,124,-50,124,-133v0,-92,-53,-134,-115,-134v-90,0,-127,81,-127,138v0,66,46,129,118,129xm701,0v-128,0,-191,-86,-191,-182v0,-87,73,-197,208,-197v110,0,185,62,185,188v0,63,-51,191,-202,191xm703,-52v68,0,124,-49,124,-132v0,-93,-53,-135,-115,-135v-90,0,-127,81,-127,138v0,66,46,129,118,129xm1141,0v-128,0,-191,-86,-191,-182v0,-87,73,-197,208,-197v110,0,185,62,185,188v0,63,-51,191,-202,191xm1143,-52v68,0,124,-49,124,-132v0,-93,-53,-135,-115,-135v-90,0,-127,81,-127,138v0,66,46,129,118,129xm290,21r-61,-42v35,-50,131,-212,229,-369v88,-141,174,-278,203,-331r63,35r-217,338","w":1383},"\u00bf":{"d":"397,-57r-23,77v-162,-30,-321,-110,-321,-227v0,-146,169,-237,242,-269r29,64v-65,22,-174,86,-174,183v0,115,140,160,247,172xm323,-700r0,98r-100,0r0,-98r100,0","w":430},"`":{"d":"352,-905r136,118r-24,35r-159,-82"},"\u00b4":{"d":"381,-787r137,-118r48,70r-159,84"},"\u02c6":{"d":"281,-803r149,-100r140,100r-41,48r-102,-84r-110,84"},"\u02dc":{"d":"495,-765v-50,2,-83,-41,-132,-40v-24,0,-43,21,-58,43r-41,-29v26,-43,59,-78,92,-78v57,-1,80,38,132,40v23,-1,43,-21,58,-43r41,33v-26,39,-59,74,-92,74"},"\u00af":{"d":"287,-770r8,-56r268,-3r-4,64"},"\u02d8":{"d":"540,-878r35,43v-33,38,-97,75,-151,75v-51,0,-122,-39,-149,-73r38,-45v25,27,64,55,119,55v47,0,82,-25,108,-55"},"\u02d9":{"d":"425,-765r-71,-71r71,-70r71,70"},"\u00a8":{"d":"315,-765r-64,-64r64,-63r64,63xm535,-765r-64,-64r64,-63r64,63"},"\u02da":{"d":"528,-845v6,109,-204,122,-206,13v2,-53,51,-88,105,-88v67,0,101,35,101,75xm424,-793v25,0,49,-15,49,-47v0,-23,-19,-41,-47,-41v-22,0,-48,15,-48,45v0,26,21,43,46,43"},"\u00b8":{"d":"412,0r61,0r-38,53v35,10,74,40,74,75v0,51,-78,96,-163,105r-10,-43v47,-2,95,-22,97,-59v0,-27,-33,-54,-65,-65"},"\u02dd":{"d":"405,-780r113,-140r55,54r-135,114xm275,-780r89,-136r59,49r-114,114"},"\u02db":{"d":"450,0r53,2v-58,34,-92,76,-92,102v0,27,27,63,89,75r-13,42v-74,-13,-151,-53,-151,-105v0,-45,55,-87,114,-116"},"\u02c7":{"d":"430,-755r-149,-98r40,-48r110,82r100,-82r39,48"},"\u2014":{"d":"0,-305r0,-70r711,2v122,0,271,-2,289,-2r0,70r-709,-2v-116,0,-244,-1,-291,2","w":1000},"\u00c6":{"d":"841,-76r4,86v-36,0,-347,-10,-367,-10r5,-279r-242,5v-22,30,-173,259,-190,290r-76,-58v55,-62,413,-562,487,-658v22,0,331,-15,363,-19r4,79v-32,0,-242,5,-258,5r0,285v18,0,176,-6,225,-12r3,79v-22,0,-208,-3,-228,-3r0,213v24,0,188,3,270,-3xm284,-337r199,-6r0,-273r-5,0","w":935},"\u00aa":{"d":"102,-344r-64,-35v28,-39,181,-325,202,-343v49,76,181,297,211,337r-66,40v-10,-19,-58,-96,-63,-104r-170,8v-6,9,-42,80,-50,97xm178,-495r120,-6v-7,-11,-54,-90,-62,-103v-11,17,-53,101,-58,109","w":488},"\u0141":{"d":"478,-76r0,86v-14,0,-311,-10,-336,-10v8,-65,8,-266,8,-304v-42,15,-79,30,-106,42r-18,-64r124,-44r-4,-330r102,0v-4,20,-7,178,-7,298v59,-21,117,-43,145,-56r19,65r-165,58r0,263v24,0,142,0,238,-4","w":533},"\u00d8":{"d":"790,-375v0,151,-101,391,-386,391v-97,0,-168,-26,-222,-70v-29,27,-58,56,-86,86r-46,-52v28,-28,55,-56,84,-83v-48,-55,-74,-132,-74,-211v0,-222,157,-402,398,-402v80,0,153,23,209,69r85,-87r53,48v-29,29,-58,57,-88,89v47,55,73,129,73,222xm409,-58v145,0,284,-111,284,-312v0,-60,-7,-118,-39,-163r-411,416v44,42,100,59,166,59xm444,-642v-238,-8,-357,275,-246,473r409,-417v-46,-41,-103,-56,-163,-56"},"\u0152":{"d":"1008,-392r3,79r-232,-4r0,244v28,0,192,3,274,-3r4,86v-36,0,-347,-10,-367,-10v1,-20,2,-63,3,-126r-3,0v-65,95,-169,142,-303,142v-205,0,-327,-167,-327,-332v0,-205,143,-400,395,-400v89,-1,176,33,238,102r-3,-86v24,0,315,-15,347,-19r4,79r-262,5r0,254v22,0,180,-5,229,-11xm409,-57v155,-2,301,-127,288,-324v0,-168,-121,-260,-254,-260v-209,0,-287,182,-287,310v0,136,86,274,253,274","w":1147},"\u00ba":{"d":"215,-350v-106,0,-172,-80,-172,-169v0,-92,72,-197,210,-197v101,0,177,62,177,170v0,76,-53,196,-215,196xm223,-405v73,0,127,-50,127,-138v0,-76,-53,-118,-109,-118v-77,0,-119,68,-119,136v0,66,46,120,101,120","w":473},"\u00e6":{"d":"750,-66r4,75v-33,0,-316,-9,-334,-9r5,-234r-210,5r-164,246r-71,-51v47,-56,358,-477,425,-561v20,0,302,-13,331,-16r3,71v-29,0,-220,4,-231,4r0,236v13,0,157,-5,201,-10r3,71v-20,0,-189,-2,-204,-2r0,178v18,0,168,2,242,-3xm258,-289r167,-6r0,-225r-4,0","w":831},"\u0131":{"d":"224,-595v-7,92,-6,492,-1,595r-94,0r3,-350v0,-15,-3,-225,-5,-245r97,0","w":352},"\u0142":{"d":"224,-362v53,-21,104,-41,125,-51r20,57r-145,54r0,235v22,0,130,0,227,-4r0,80v-29,0,-299,-9,-322,-9v9,-64,8,-227,8,-269v-38,14,-67,26,-92,37r-19,-55v24,-9,60,-22,111,-43r-4,-265r99,0v-4,25,-9,172,-8,233","w":497},"\u00f8":{"d":"368,14v-89,0,-155,-21,-204,-58v-27,23,-51,47,-78,72r-46,-51v26,-20,54,-42,80,-65v-42,-46,-64,-112,-64,-179v0,-189,141,-342,361,-342v73,0,139,20,190,59r80,-82r47,49v-28,25,-52,46,-81,75v41,45,64,110,64,189v0,129,-90,333,-349,333xm372,-50v128,0,256,-94,256,-265v0,-51,-3,-98,-31,-137r-375,353v40,35,90,49,150,49xm145,-280v0,50,8,100,34,135r374,-354v-42,-34,-92,-46,-149,-46v-159,0,-259,121,-259,265","w":774},"\u0153":{"d":"917,-335r3,71r-209,-3r0,203v23,0,173,2,247,-3r4,76v-33,0,-316,-9,-337,-9v1,-17,2,-54,3,-110r-3,0v-56,84,-151,124,-273,124v-188,0,-297,-140,-297,-283v0,-174,130,-340,359,-340v81,-1,160,29,214,91r-3,-77v25,0,290,-13,319,-16r3,71r-236,4r0,210v18,0,162,-4,206,-9xm372,-52v133,0,258,-102,258,-227r0,-60v0,-122,-106,-204,-227,-204v-189,0,-257,153,-257,262v0,115,79,229,226,229","w":1039},"\u00df":{"d":"128,16r-23,-70v92,-18,209,-55,209,-123v0,-44,-31,-65,-97,-97v-78,-38,-135,-74,-135,-136v0,-95,139,-178,268,-201r19,70v-59,9,-195,43,-195,117v0,46,65,69,104,91v69,38,129,65,129,136v0,88,-101,177,-279,213xm607,16r-23,-70v92,-18,209,-55,209,-123v0,-44,-31,-65,-97,-97v-78,-38,-135,-74,-135,-136v0,-95,139,-178,268,-201r19,70v-59,9,-195,43,-195,117v0,46,65,69,104,91v69,38,129,65,129,136v0,88,-101,177,-279,213","w":960},"\u00b9":{"d":"231,-274r-75,0r4,-320v-19,20,-73,66,-86,79r-31,-43v13,-10,164,-135,191,-158v0,20,-5,102,-5,188","w":350},"\u00ac":{"d":"40,-403r516,0r0,285r-70,0r0,-219r-446,0r0,-66","w":596},"\u00b5":{"d":"81,-502r96,0r0,312v0,76,42,128,116,128v82,0,132,-76,132,-152r0,-288r90,0r0,502r-90,0r0,-76r-4,0v-42,94,-178,123,-244,38v-9,8,0,55,0,72r0,158r-96,0r0,-694","w":596},"\u2122":{"d":"0,-705v90,7,191,8,288,0r0,62v-8,-3,-89,-6,-114,-6r5,283r-67,0r2,-283v-40,0,-101,3,-114,6r0,-62xm300,-353r-57,-18v8,-22,103,-320,112,-351r4,0v14,27,58,146,86,214v13,-38,71,-174,87,-205r4,0v13,32,94,289,112,335r-54,25v-16,-37,-53,-182,-69,-209v-14,36,-59,130,-84,184r-6,0v-36,-76,-56,-144,-76,-184v-14,54,-49,170,-59,209","w":672},"\u00d0":{"d":"49,-310r-3,-69v20,0,53,-2,104,-4r-5,-317v57,0,168,-1,255,10v326,41,366,187,366,256v0,310,-394,439,-622,439v4,-46,6,-294,6,-321v-48,2,-81,4,-101,6xm396,-398r2,71v-44,1,-103,3,-158,6r0,238v273,-23,428,-195,428,-325v0,-147,-170,-220,-428,-217r0,237v56,-2,116,-7,156,-10","w":826},"\u00bd":{"d":"799,5v-26,-3,-236,-6,-326,-5r-2,-5v89,-57,226,-161,226,-258v0,-75,-93,-111,-171,-108r11,-67v152,15,239,91,239,171v0,101,-111,179,-161,213r1,3r183,-12r0,68xm646,-686r-217,338r-217,369r-61,-42v35,-50,131,-212,229,-369v88,-141,174,-278,203,-331xm220,-716v0,20,-5,102,-5,188r2,254r-75,0r4,-320v-19,20,-73,66,-86,79r-31,-43v13,-10,164,-135,191,-158","w":864},"\u00b1":{"d":"263,-573r70,0r0,190r223,0r0,66r-223,0r0,196r-70,0r0,-196r-223,0r0,-66r223,0r0,-190xm40,-66r516,0r0,66r-516,0r0,-66","w":596},"\u00de":{"d":"238,-580v162,0,324,61,316,190v0,122,-126,233,-316,261r2,129r-94,0r5,-465v0,-23,-3,-220,-3,-235r93,0xm238,-511r0,312v126,-16,219,-81,219,-176v0,-27,-17,-137,-219,-136","w":624},"\u00bc":{"d":"771,-151r-5,58r-64,-2r1,95r-69,0r3,-95r-221,0r-3,-6r284,-341r6,0r0,293xm638,-150r0,-147r-118,147r118,0xm652,-686r-217,338r-217,369r-61,-42v35,-50,131,-212,229,-369v88,-141,174,-278,203,-331xm230,-716v0,20,-5,102,-5,188r2,254r-75,0r4,-320v-19,20,-73,66,-86,79r-31,-43v13,-10,164,-135,191,-158","w":816},"\u00f7":{"d":"355,-442v0,34,-22,59,-58,59v-32,0,-55,-25,-55,-59v0,-35,23,-59,57,-59v34,0,56,24,56,59xm556,-234r-515,0r0,-66r515,0r0,66xm355,-92v0,34,-22,59,-58,59v-32,0,-55,-25,-55,-59v0,-35,23,-59,57,-59v34,0,56,24,56,59","w":596},"\u00a6":{"d":"161,-324r-74,0r0,-350r74,0r0,350xm161,176r-74,0r0,-350r74,0r0,350","w":247},"\u00b0":{"d":"301,-553v0,81,-66,136,-138,136v-80,0,-135,-60,-135,-131v0,-77,60,-137,138,-137v83,0,135,62,135,132xm242,-551v0,-38,-23,-84,-79,-83v-49,0,-76,44,-76,85v0,45,33,81,77,81v45,0,78,-36,78,-83","w":325},"\u00fe":{"d":"218,-453r0,277v117,-9,195,-72,195,-156v0,-40,-23,-120,-195,-121xm219,-517v148,-5,287,62,288,174v0,115,-108,216,-289,231r1,140r-91,0r4,-430v0,-20,-2,-187,-2,-221r92,0v-2,37,-3,72,-3,106","w":564},"\u00be":{"d":"785,-151r-5,58r-64,-2r1,95r-69,0r3,-95r-221,0r-3,-6r284,-341r6,0r0,293xm652,-150r0,-147r-118,147r118,0xm676,-686r-217,338r-217,369r-61,-42v35,-50,131,-212,229,-369v88,-141,174,-278,203,-331xm323,-412v0,83,-140,147,-273,150r-2,-60v81,5,190,-23,190,-87v0,-51,-76,-73,-140,-79r0,-13v47,-2,130,-38,130,-89v0,-47,-78,-71,-147,-68r8,-56v85,2,217,40,217,114v1,45,-56,82,-89,101v57,11,106,37,106,87","w":830},"\u00b2":{"d":"344,-337r0,68v-26,-2,-236,-6,-326,-5r-2,-5v89,-57,226,-161,226,-258v0,-75,-93,-111,-171,-108r11,-67v152,15,239,91,239,171v0,101,-111,179,-161,213r1,3","w":390},"\u00ae":{"d":"421,16v-205,0,-361,-156,-361,-361v0,-210,161,-371,371,-371v210,0,361,151,361,361v0,210,-161,371,-371,371xm422,-38v175,0,297,-138,297,-313v0,-170,-127,-311,-287,-311v-175,0,-299,136,-299,311v0,170,129,313,289,313xm304,-537v97,0,242,-4,245,84v0,43,-28,75,-70,101v12,17,102,119,116,134r-55,41v-5,-7,-118,-155,-133,-176v25,-13,75,-44,75,-84v0,-23,-16,-55,-114,-52r3,303r-66,-1","w":852},"\u2212":{"d":"40,-300r516,0r0,66r-516,0r0,-66","w":596},"\u00f0":{"d":"137,-269v-43,2,-73,4,-91,5r-3,-60v18,0,48,-2,94,-4r-5,-267v52,0,146,-2,225,5v300,27,322,164,322,227v0,260,-296,367,-548,367v4,-57,6,-230,6,-273xm223,-274r0,204v244,-20,364,-145,364,-275v0,-136,-135,-186,-364,-183r0,196v51,-2,107,-6,148,-8r2,62v-45,1,-100,2,-150,4","w":727},"\u00d7":{"d":"40,-479r48,-48r210,215r210,-215r48,48r-210,215r210,216r-48,48r-210,-215r-210,215r-48,-48r210,-216","w":596},"\u00b3":{"d":"81,-658r8,-56v85,2,217,40,217,114v1,45,-56,82,-89,101v57,11,106,37,106,87v0,83,-140,147,-273,150r-2,-60v81,5,190,-23,190,-87v0,-51,-76,-73,-140,-79r0,-13v47,-2,130,-38,130,-89v0,-47,-78,-71,-147,-68","w":375},"\u00a9":{"d":"421,16v-205,0,-361,-156,-361,-361v0,-210,161,-371,371,-371v210,0,361,151,361,361v0,210,-161,371,-371,371xm422,-38v175,0,297,-138,297,-313v0,-170,-127,-311,-287,-311v-175,0,-299,136,-299,311v0,170,129,313,289,313xm535,-244r5,62v-15,3,-38,5,-68,5v-199,0,-213,-133,-213,-151v0,-85,75,-190,252,-221r7,64v-109,8,-188,79,-188,149v0,38,34,100,147,100v20,0,41,-4,58,-8","w":852},"\u00c1":{"d":"102,19r-82,-52v57,-96,340,-667,369,-702v88,142,325,593,393,697r-85,56v-20,-38,-126,-243,-137,-259r-347,14v-12,19,-94,212,-111,246xm247,-293r283,-12v-11,-22,-134,-255,-144,-271v-15,22,-130,267,-139,283xm296,-799r137,-118r48,70r-159,84","w":800},"\u00c2":{"d":"102,19r-82,-52v57,-96,340,-667,369,-702v88,142,325,593,393,697r-85,56v-20,-38,-126,-243,-137,-259r-347,14v-12,19,-94,212,-111,246xm247,-293r283,-12v-11,-22,-134,-255,-144,-271v-15,22,-130,267,-139,283xm241,-803r149,-100r140,100r-41,48r-102,-84r-110,84","w":800},"\u00c4":{"d":"102,19r-82,-52v57,-96,340,-667,369,-702v88,142,325,593,393,697r-85,56v-20,-38,-126,-243,-137,-259r-347,14v-12,19,-94,212,-111,246xm247,-293r283,-12v-11,-22,-134,-255,-144,-271v-15,22,-130,267,-139,283xm280,-765r-64,-64r64,-63r64,63xm500,-765r-64,-64r64,-63r64,63","w":800},"\u00c0":{"d":"102,19r-82,-52v57,-96,340,-667,369,-702v88,142,325,593,393,697r-85,56v-20,-38,-126,-243,-137,-259r-347,14v-12,19,-94,212,-111,246xm247,-293r283,-12v-11,-22,-134,-255,-144,-271v-15,22,-130,267,-139,283xm327,-917r136,118r-24,35r-159,-82","w":800},"\u00c5":{"d":"247,-293r283,-12v-11,-22,-134,-255,-144,-271v-15,22,-130,267,-139,283xm396,-821v-22,0,-48,15,-48,45v0,26,21,43,46,43v25,0,49,-15,49,-47v0,-23,-19,-41,-47,-41xm102,19r-82,-52v50,-88,296,-571,347,-665v-42,-7,-75,-34,-75,-74v2,-53,51,-88,105,-88v67,0,101,35,101,75v0,49,-40,81,-87,88v95,158,307,561,371,659r-85,56v-20,-38,-126,-243,-137,-259r-347,14v-12,19,-94,212,-111,246","w":800},"\u00c3":{"d":"102,19r-82,-52v57,-96,340,-667,369,-702v88,142,325,593,393,697r-85,56v-20,-38,-126,-243,-137,-259r-347,14v-12,19,-94,212,-111,246xm247,-293r283,-12v-11,-22,-134,-255,-144,-271v-15,22,-130,267,-139,283xm460,-765v-50,2,-83,-41,-132,-40v-24,0,-43,21,-58,43r-41,-29v26,-43,59,-78,92,-78v57,-1,80,38,132,40v23,-1,43,-21,58,-43r41,33v-26,39,-59,74,-92,74","w":800},"\u00c7":{"d":"612,-74r10,80v-53,11,-186,15,-249,0r-33,47v35,10,74,40,74,75v0,51,-78,96,-163,105r-10,-43v47,-2,95,-22,97,-59v0,-27,-33,-54,-65,-65r47,-70v-204,-53,-260,-201,-260,-276v0,-164,151,-373,504,-436r15,84v-229,26,-418,163,-418,335v0,122,96,237,335,237v40,0,82,-6,116,-14","w":660},"\u00c9":{"d":"480,-76r4,86v-16,0,-317,-10,-337,-10r3,-424v0,-16,-2,-257,-3,-276v24,0,285,-15,317,-19r4,79v-32,0,-212,5,-228,5r0,254v18,0,146,-5,195,-11r3,79v-22,0,-178,-4,-198,-4r0,244v24,0,158,3,240,-3xm243,-797r137,-118r48,70r-159,84","w":574},"\u00ca":{"d":"480,-76r4,86v-16,0,-317,-10,-337,-10r3,-424v0,-16,-2,-257,-3,-276v24,0,285,-15,317,-19r4,79v-32,0,-212,5,-228,5r0,254v18,0,146,-5,195,-11r3,79v-22,0,-178,-4,-198,-4r0,244v24,0,158,3,240,-3xm163,-803r149,-100r140,100r-41,48r-102,-84r-110,84","w":574},"\u00cb":{"d":"480,-76r4,86v-16,0,-317,-10,-337,-10r3,-424v0,-16,-2,-257,-3,-276v24,0,285,-15,317,-19r4,79v-32,0,-212,5,-228,5r0,254v18,0,146,-5,195,-11r3,79v-22,0,-178,-4,-198,-4r0,244v24,0,158,3,240,-3xm197,-775r-64,-64r64,-63r64,63xm417,-775r-64,-64r64,-63r64,63","w":574},"\u00c8":{"d":"480,-76r4,86v-16,0,-317,-10,-337,-10r3,-424v0,-16,-2,-257,-3,-276v24,0,285,-15,317,-19r4,79v-32,0,-212,5,-228,5r0,254v18,0,146,-5,195,-11r3,79v-22,0,-178,-4,-198,-4r0,244v24,0,158,3,240,-3xm234,-915r136,118r-24,35r-159,-82","w":574},"\u00cd":{"d":"245,-700v-7,108,-6,579,-1,700r-97,0r3,-412v0,-17,-3,-264,-5,-288r100,0xm141,-787r137,-118r48,70r-159,84","w":390},"\u00ce":{"d":"245,-700v-7,108,-6,579,-1,700r-97,0r3,-412v0,-17,-3,-264,-5,-288r100,0xm51,-803r149,-100r140,100r-41,48r-102,-84r-110,84","w":390},"\u00cf":{"d":"245,-700v-7,108,-6,579,-1,700r-97,0r3,-412v0,-17,-3,-264,-5,-288r100,0xm85,-765r-64,-64r64,-63r64,63xm305,-765r-64,-64r64,-63r64,63","w":390},"\u00cc":{"d":"245,-700v-7,108,-6,579,-1,700r-97,0r3,-412v0,-17,-3,-264,-5,-288r100,0xm122,-905r136,118r-24,35r-159,-82","w":390},"\u00d1":{"d":"211,7r-94,-7v5,-75,32,-637,37,-740v33,30,511,535,546,567v0,-28,6,-499,7,-532r93,5v-6,58,-19,476,-29,721v-29,-27,-530,-548,-553,-571v0,35,-8,524,-7,557xm553,-755v-50,2,-83,-41,-132,-40v-24,0,-43,21,-58,43r-41,-29v26,-43,59,-78,92,-78v57,-1,80,38,132,40v23,-1,43,-21,58,-43r41,33v-26,39,-59,74,-92,74","w":915},"\u00d3":{"d":"402,16v-218,0,-342,-154,-342,-330v0,-222,157,-402,398,-402v189,0,332,125,332,341v0,156,-104,391,-388,391xm411,-58v150,0,282,-115,282,-312v0,-179,-118,-272,-249,-272v-179,0,-288,142,-288,313v0,149,98,271,255,271xm381,-787r137,-118r48,70r-159,84"},"\u00d4":{"d":"402,16v-218,0,-342,-154,-342,-330v0,-222,157,-402,398,-402v189,0,332,125,332,341v0,156,-104,391,-388,391xm411,-58v150,0,282,-115,282,-312v0,-179,-118,-272,-249,-272v-179,0,-288,142,-288,313v0,149,98,271,255,271xm281,-803r149,-100r140,100r-41,48r-102,-84r-110,84"},"\u00d6":{"d":"402,16v-218,0,-342,-154,-342,-330v0,-222,157,-402,398,-402v189,0,332,125,332,341v0,156,-104,391,-388,391xm411,-58v150,0,282,-115,282,-312v0,-179,-118,-272,-249,-272v-179,0,-288,142,-288,313v0,149,98,271,255,271xm315,-765r-64,-64r64,-63r64,63xm535,-765r-64,-64r64,-63r64,63"},"\u00d2":{"d":"402,16v-218,0,-342,-154,-342,-330v0,-222,157,-402,398,-402v189,0,332,125,332,341v0,156,-104,391,-388,391xm411,-58v150,0,282,-115,282,-312v0,-179,-118,-272,-249,-272v-179,0,-288,142,-288,313v0,149,98,271,255,271xm352,-905r136,118r-24,35r-159,-82"},"\u00d5":{"d":"402,16v-218,0,-342,-154,-342,-330v0,-222,157,-402,398,-402v189,0,332,125,332,341v0,156,-104,391,-388,391xm411,-58v150,0,282,-115,282,-312v0,-179,-118,-272,-249,-272v-179,0,-288,142,-288,313v0,149,98,271,255,271xm495,-780v-50,2,-83,-41,-132,-40v-24,0,-43,21,-58,43r-41,-29v26,-43,59,-78,92,-78v57,-1,80,38,132,40v23,-1,43,-21,58,-43r41,33v-26,39,-59,74,-92,74"},"\u0160":{"d":"146,18r-26,-75v98,-20,223,-70,223,-151v0,-50,-32,-76,-104,-115v-85,-46,-144,-88,-144,-159v0,-106,148,-205,285,-236r21,77v-61,10,-209,58,-209,142v0,52,71,84,113,109v76,45,137,77,137,158v0,98,-104,205,-296,250xm269,-755r-149,-98r40,-48r110,82r100,-82r39,48","w":527},"\u00da":{"d":"206,-695v-3,22,-6,161,-5,232v0,162,7,236,46,305v39,68,101,97,173,97v86,0,141,-43,174,-95v68,-93,49,-388,43,-554r95,0v-2,233,23,507,-85,620v-59,72,-134,106,-240,106v-54,0,-163,-8,-233,-119v-47,-75,-64,-153,-64,-396r1,-196r95,0xm373,-787r137,-118r48,70r-159,84","w":833},"\u00db":{"d":"206,-695v-3,22,-6,161,-5,232v0,162,7,236,46,305v39,68,101,97,173,97v86,0,141,-43,174,-95v68,-93,49,-388,43,-554r95,0v-2,233,23,507,-85,620v-59,72,-134,106,-240,106v-54,0,-163,-8,-233,-119v-47,-75,-64,-153,-64,-396r1,-196r95,0xm288,-803r149,-100r140,100r-41,48r-102,-84r-110,84","w":833},"\u00dc":{"d":"206,-695v-3,22,-6,161,-5,232v0,162,7,236,46,305v39,68,101,97,173,97v86,0,141,-43,174,-95v68,-93,49,-388,43,-554r95,0v-2,233,23,507,-85,620v-59,72,-134,106,-240,106v-54,0,-163,-8,-233,-119v-47,-75,-64,-153,-64,-396r1,-196r95,0xm317,-765r-64,-64r64,-63r64,63xm537,-765r-64,-64r64,-63r64,63","w":833},"\u00d9":{"d":"206,-695v-3,22,-6,161,-5,232v0,162,7,236,46,305v39,68,101,97,173,97v86,0,141,-43,174,-95v68,-93,49,-388,43,-554r95,0v-2,233,23,507,-85,620v-59,72,-134,106,-240,106v-54,0,-163,-8,-233,-119v-47,-75,-64,-153,-64,-396r1,-196r95,0xm344,-905r136,118r-24,35r-159,-82","w":833},"\u00dd":{"d":"695,-638v-150,43,-309,231,-306,421r0,94v0,14,3,103,5,123r-100,0r5,-217v0,-130,-61,-235,-129,-310v-40,-45,-93,-88,-147,-111r41,-78v64,33,130,88,156,117v49,53,105,136,132,215v52,-154,168,-274,313,-332xm318,-787r137,-118r48,70r-159,84","w":684},"\u0178":{"d":"695,-638v-150,43,-309,231,-306,421r0,94v0,14,3,103,5,123r-100,0r5,-217v0,-130,-61,-235,-129,-310v-40,-45,-93,-88,-147,-111r41,-78v64,33,130,88,156,117v49,53,105,136,132,215v52,-154,168,-274,313,-332xm247,-765r-64,-64r64,-63r64,63xm467,-765r-64,-64r64,-63r64,63","w":684},"\u017d":{"d":"92,-643r4,-76v65,8,533,20,555,26v-46,50,-436,613,-446,627v54,0,387,-3,415,-7r-4,83v-24,-2,-524,-6,-571,-12v45,-44,429,-599,453,-632v-39,0,-377,-9,-406,-9xm369,-755r-149,-98r40,-48r110,82r100,-82r39,48","w":688},"\u00e1":{"d":"91,18r-77,-44v48,-85,308,-566,328,-599r2,0v77,121,293,504,352,593r-81,49v-16,-32,-110,-200,-119,-215r-309,12v-12,27,-82,175,-96,204xm221,-249r244,-10v-10,-19,-115,-211,-124,-225v-13,20,-112,221,-120,235xm281,-709r130,-112r45,66r-151,80","w":710},"\u00e2":{"d":"91,18r-77,-44v48,-85,308,-566,328,-599r2,0v77,121,293,504,352,593r-81,49v-16,-32,-110,-200,-119,-215r-309,12v-12,27,-82,175,-96,204xm221,-249r244,-10v-10,-19,-115,-211,-124,-225v-13,20,-112,221,-120,235xm210,-724r142,-95r133,95r-39,45r-97,-80r-105,80","w":710},"\u00e4":{"d":"91,18r-77,-44v48,-85,308,-566,328,-599r2,0v77,121,293,504,352,593r-81,49v-16,-32,-110,-200,-119,-215r-309,12v-12,27,-82,175,-96,204xm221,-249r244,-10v-10,-19,-115,-211,-124,-225v-13,20,-112,221,-120,235xm244,-688r-60,-61r60,-60r61,60xm454,-688r-61,-61r61,-60r60,60","w":710},"\u00e0":{"d":"91,18r-77,-44v48,-85,308,-566,328,-599r2,0v77,121,293,504,352,593r-81,49v-16,-32,-110,-200,-119,-215r-309,12v-12,27,-82,175,-96,204xm221,-249r244,-10v-10,-19,-115,-211,-124,-225v-13,20,-112,221,-120,235xm281,-821r129,112r-22,33r-151,-78","w":710},"\u00e5":{"d":"91,18r-77,-44v48,-85,308,-566,328,-599r2,0v77,121,293,504,352,593r-81,49v-16,-32,-110,-200,-119,-215r-309,12v-12,27,-82,175,-96,204xm221,-249r244,-10v-10,-19,-115,-211,-124,-225v-13,20,-112,221,-120,235xm444,-765v6,105,-193,116,-196,13v2,-51,49,-84,100,-84v64,0,96,33,96,71xm345,-715v24,0,47,-14,47,-45v0,-22,-18,-39,-45,-39v-21,0,-46,14,-46,43v0,25,20,41,44,41","w":710},"\u00e3":{"d":"91,18r-77,-44v48,-85,308,-566,328,-599r2,0v77,121,293,504,352,593r-81,49v-16,-32,-110,-200,-119,-215r-309,12v-12,27,-82,175,-96,204xm221,-249r244,-10v-10,-19,-115,-211,-124,-225v-13,20,-112,221,-120,235xm415,-688v-49,2,-80,-38,-126,-38v-23,0,-41,20,-55,41r-39,-27v25,-41,56,-74,87,-74v56,-1,77,35,126,38v22,-1,41,-20,55,-41r39,31v-25,37,-56,70,-87,70","w":710},"\u00e7":{"d":"355,10r-34,50v34,10,71,38,71,71v0,49,-74,92,-155,100r-10,-41v45,-2,93,-21,93,-56v0,-25,-32,-51,-62,-62r48,-71v-183,-38,-250,-157,-250,-239v0,-144,136,-317,447,-372r14,76v-198,24,-368,134,-368,282v0,100,85,194,302,194v37,0,75,-5,96,-10r9,75v-31,7,-146,10,-201,3","w":587},"\u00e9":{"d":"448,-67r3,76v-30,0,-304,-9,-322,-9r3,-360v0,-14,-2,-219,-3,-235v22,0,259,-13,304,-16r4,72v-39,0,-203,4,-218,4r0,208v17,0,133,-4,188,-9r3,73r-191,-3r0,202v22,0,144,2,229,-3xm210,-709r130,-112r45,66r-151,80","w":528},"\u00ea":{"d":"448,-67r3,76v-30,0,-304,-9,-322,-9r3,-360v0,-14,-2,-219,-3,-235v22,0,259,-13,304,-16r4,72v-39,0,-203,4,-218,4r0,208v17,0,133,-4,188,-9r3,73r-191,-3r0,202v22,0,144,2,229,-3xm139,-724r142,-95r133,95r-39,45r-97,-80r-105,80","w":528},"\u00eb":{"d":"448,-67r3,76v-30,0,-304,-9,-322,-9r3,-360v0,-14,-2,-219,-3,-235v22,0,259,-13,304,-16r4,72v-39,0,-203,4,-218,4r0,208v17,0,133,-4,188,-9r3,73r-191,-3r0,202v22,0,144,2,229,-3xm163,-688r-60,-61r60,-60r61,60xm373,-688r-61,-61r61,-60r60,60","w":528},"\u00e8":{"d":"448,-67r3,76v-30,0,-304,-9,-322,-9r3,-360v0,-14,-2,-219,-3,-235v22,0,259,-13,304,-16r4,72v-39,0,-203,4,-218,4r0,208v17,0,133,-4,188,-9r3,73r-191,-3r0,202v22,0,144,2,229,-3xm215,-821r129,112r-22,33r-151,-78","w":528},"\u00ed":{"d":"224,-595v-7,92,-6,492,-1,595r-94,0r3,-350v0,-15,-3,-225,-5,-245r97,0xm112,-709r130,-112r45,66r-151,80","w":352},"\u00ee":{"d":"224,-595v-7,92,-6,492,-1,595r-94,0r3,-350v0,-15,-3,-225,-5,-245r97,0xm41,-724r142,-95r133,95r-39,45r-97,-80r-105,80","w":352},"\u00ef":{"d":"224,-595v-7,92,-6,492,-1,595r-94,0r3,-350v0,-15,-3,-225,-5,-245r97,0xm65,-688r-60,-61r60,-60r61,60xm275,-688r-61,-61r61,-60r60,60","w":352},"\u00ec":{"d":"224,-595v-7,92,-6,492,-1,595r-94,0r3,-350v0,-15,-3,-225,-5,-245r97,0xm107,-821r129,112r-22,33r-151,-78","w":352},"\u00f1":{"d":"193,6r-92,-6v5,-64,30,-541,34,-629r5,0v26,28,443,448,471,475v0,-24,2,-417,3,-445r89,4v-4,51,-21,399,-25,613r-4,0v-28,-23,-461,-462,-477,-472v2,16,-5,432,-4,460xm477,-688v-49,2,-80,-38,-126,-38v-23,0,-41,20,-55,41r-39,-27v25,-41,56,-74,87,-74v56,-1,77,35,126,38v22,-1,41,-20,55,-41r39,31v-25,37,-56,70,-87,70","w":803},"\u00f3":{"d":"363,14v-199,0,-308,-131,-308,-281v0,-189,139,-342,359,-342v176,0,305,107,305,290v0,133,-94,333,-356,333xm371,-52v137,0,255,-95,255,-263v0,-152,-106,-228,-225,-228v-159,0,-254,118,-254,263v0,127,85,228,224,228xm333,-709r130,-112r45,66r-151,80","w":774},"\u00f4":{"d":"363,14v-199,0,-308,-131,-308,-281v0,-189,139,-342,359,-342v176,0,305,107,305,290v0,133,-94,333,-356,333xm371,-52v137,0,255,-95,255,-263v0,-152,-106,-228,-225,-228v-159,0,-254,118,-254,263v0,127,85,228,224,228xm252,-724r142,-95r133,95r-39,45r-97,-80r-105,80","w":774},"\u00f6":{"d":"363,14v-199,0,-308,-131,-308,-281v0,-189,139,-342,359,-342v176,0,305,107,305,290v0,133,-94,333,-356,333xm371,-52v137,0,255,-95,255,-263v0,-152,-106,-228,-225,-228v-159,0,-254,118,-254,263v0,127,85,228,224,228xm286,-688r-60,-61r60,-60r61,60xm496,-688r-61,-61r61,-60r60,60","w":774},"\u00f2":{"d":"363,14v-199,0,-308,-131,-308,-281v0,-189,139,-342,359,-342v176,0,305,107,305,290v0,133,-94,333,-356,333xm371,-52v137,0,255,-95,255,-263v0,-152,-106,-228,-225,-228v-159,0,-254,118,-254,263v0,127,85,228,224,228xm313,-821r129,112r-22,33r-151,-78","w":774},"\u00f5":{"d":"363,14v-199,0,-308,-131,-308,-281v0,-189,139,-342,359,-342v176,0,305,107,305,290v0,133,-94,333,-356,333xm371,-52v137,0,255,-95,255,-263v0,-152,-106,-228,-225,-228v-159,0,-254,118,-254,263v0,127,85,228,224,228xm462,-688v-49,2,-80,-38,-126,-38v-23,0,-41,20,-55,41r-39,-27v25,-41,56,-74,87,-74v56,-1,77,35,126,38v22,-1,41,-20,55,-41r39,31v-25,37,-56,70,-87,70","w":774},"\u0161":{"d":"128,16r-23,-70v92,-18,209,-55,209,-123v0,-44,-31,-65,-97,-97v-78,-38,-135,-74,-135,-136v0,-95,139,-178,268,-201r19,70v-59,9,-195,43,-195,117v0,46,65,69,104,91v69,38,129,65,129,136v0,88,-101,177,-279,213xm253,-679r-142,-93r38,-45r105,78r95,-78r37,45","w":480},"\u00fa":{"d":"184,-591v-2,18,-5,137,-4,197v0,138,8,201,42,257v35,57,86,82,151,82v78,0,123,-36,153,-81v60,-76,42,-328,38,-468r91,0v-1,202,19,431,-79,527v-54,62,-118,91,-215,91v-49,0,-144,-7,-208,-102v-47,-52,-63,-188,-60,-382v0,-39,1,-101,1,-121r90,0xm316,-709r130,-112r45,66r-151,80","w":740},"\u00fb":{"d":"184,-591v-2,18,-5,137,-4,197v0,138,8,201,42,257v35,57,86,82,151,82v78,0,123,-36,153,-81v60,-76,42,-328,38,-468r91,0v-1,202,19,431,-79,527v-54,62,-118,91,-215,91v-49,0,-144,-7,-208,-102v-47,-52,-63,-188,-60,-382v0,-39,1,-101,1,-121r90,0xm235,-724r142,-95r133,95r-39,45r-97,-80r-105,80","w":740},"\u00fc":{"d":"184,-591v-2,18,-5,137,-4,197v0,138,8,201,42,257v35,57,86,82,151,82v78,0,123,-36,153,-81v60,-76,42,-328,38,-468r91,0v-1,202,19,431,-79,527v-54,62,-118,91,-215,91v-49,0,-144,-7,-208,-102v-47,-52,-63,-188,-60,-382v0,-39,1,-101,1,-121r90,0xm269,-688r-60,-61r60,-60r61,60xm479,-688r-61,-61r61,-60r60,60","w":740},"\u00f9":{"d":"184,-591v-2,18,-5,137,-4,197v0,138,8,201,42,257v35,57,86,82,151,82v78,0,123,-36,153,-81v60,-76,42,-328,38,-468r91,0v-1,202,19,431,-79,527v-54,62,-118,91,-215,91v-49,0,-144,-7,-208,-102v-47,-52,-63,-188,-60,-382v0,-39,1,-101,1,-121r90,0xm306,-821r129,112r-22,33r-151,-78","w":740},"\u00fd":{"d":"600,-533v-120,34,-272,193,-264,352r0,76v0,12,3,88,5,105r-96,0r4,-181v-1,-170,-120,-293,-237,-350r37,-73v48,24,108,69,131,94v44,45,97,114,120,183v44,-128,155,-233,274,-279xm239,-709r130,-112r45,66r-151,80","w":585},"\u00ff":{"d":"600,-533v-120,34,-272,193,-264,352r0,76v0,12,3,88,5,105r-96,0r4,-181v-1,-170,-120,-293,-237,-350r37,-73v48,24,108,69,131,94v44,45,97,114,120,183v44,-128,155,-233,274,-279xm192,-688r-60,-61r60,-60r61,60xm402,-688r-61,-61r61,-60r60,60","w":585},"\u017e":{"d":"77,-538r4,-73v51,7,477,16,487,22r-393,529v49,0,349,-3,370,-6r-3,75v-19,-2,-474,-5,-512,-11v38,-40,380,-505,400,-532v-35,0,-336,-4,-353,-4xm309,-679r-142,-93r38,-45r105,78r95,-78r37,45","w":601},"\uf721":{"d":"77,0r0,-88r95,0r0,88r-95,0xm152,-190r-55,6v0,-119,0,-323,-4,-425r104,4v-9,81,-34,299,-45,415","w":273},"\uf724":{"d":"176,-669r70,0r-3,96v14,-7,77,-22,91,-23r9,72v-71,-1,-184,40,-184,94v0,40,32,60,100,91v61,28,118,59,118,124v0,70,-90,138,-134,154r3,133r-70,0r3,-112v-20,7,-70,19,-86,20r-13,-69v128,-10,207,-64,207,-107v0,-38,-20,-54,-86,-88v-69,-35,-133,-74,-133,-131v0,-60,69,-108,111,-130","w":446},"\uf726":{"d":"221,-54v66,0,110,-20,162,-65v-76,-54,-154,-114,-188,-148v-46,32,-80,71,-80,130v0,47,43,83,106,83xm584,-57r-46,62v-25,-18,-62,-50,-106,-84v-59,58,-127,93,-228,93v-92,0,-178,-55,-178,-139v0,-90,74,-152,122,-186v-141,-126,29,-274,195,-299r19,70v-79,10,-182,44,-182,116v0,53,49,90,106,139v32,27,87,71,150,115v37,-42,65,-87,77,-106r58,51v-24,29,-48,63,-83,95","w":610},"\uf730":{"d":"329,-13v-135,0,-276,-94,-276,-284v0,-172,141,-285,294,-285v160,0,280,113,280,279v0,148,-117,290,-298,290xm342,-83v89,0,199,-70,199,-224v0,-111,-88,-206,-203,-206v-115,0,-200,91,-200,221v0,99,67,209,204,209","w":680},"\uf731":{"d":"277,0r-90,0v0,-22,6,-129,6,-244r0,-214v-26,29,-94,91,-120,116r-42,-51v17,-14,213,-191,244,-219r6,0v0,28,-6,141,-6,256","w":400},"\uf732":{"d":"442,-69r0,76v-36,-4,-319,-8,-440,-7r-2,-11v121,-77,316,-215,316,-352v0,-119,-141,-169,-248,-174r17,-72v204,22,323,125,323,238v0,138,-156,250,-232,308r1,3","w":522},"\uf733":{"d":"79,-546r11,-70v104,3,274,58,274,159v1,61,-70,119,-111,140v67,18,131,60,131,128v0,115,-177,208,-342,212r-5,-73v103,3,252,-37,252,-135v0,-77,-122,-105,-189,-107r0,-34v73,-5,175,-51,175,-117v0,-70,-103,-103,-196,-103","w":445},"\uf734":{"d":"402,-621r0,422r98,-3r-6,69r-93,-2r2,135r-84,0r4,-135r-320,0r-3,-10r391,-476r11,0xm325,-200r0,-247r-2,0v-30,41,-160,206,-193,247r195,0","w":531},"\uf735":{"d":"160,-531r-16,93v194,30,239,112,239,182v0,127,-170,246,-319,277r-20,-70v98,-17,250,-85,250,-194v0,-79,-86,-122,-229,-134r37,-220v27,-1,242,-7,289,-11r-1,78","w":450},"\uf736":{"d":"236,14v-115,2,-188,-79,-186,-199v0,-168,145,-353,270,-437r50,62v-48,28,-138,99,-182,186v151,-6,266,72,266,179v0,123,-112,209,-218,209xm137,-190v0,84,43,139,105,139v75,0,122,-59,122,-127v0,-93,-97,-141,-203,-135v-16,36,-24,70,-24,123","w":506},"\uf737":{"d":"19,-531r-4,-75v67,3,326,8,412,8r2,4v-16,25,-233,561,-252,611r-83,-37v19,-29,223,-488,233,-510","w":437},"\uf738":{"d":"275,-554v-157,-1,-140,214,-5,216v64,0,113,-43,113,-112v0,-71,-48,-104,-108,-104xm283,-613v109,0,187,61,187,152v0,49,-30,115,-102,146v72,29,112,86,112,156v0,72,-64,175,-213,175v-135,0,-201,-75,-201,-163v0,-64,47,-128,107,-160v-59,-24,-98,-80,-98,-140v0,-76,75,-166,208,-166xm272,-43v69,0,119,-42,119,-111v0,-75,-54,-122,-120,-122v-75,0,-115,60,-115,127v0,56,45,106,116,106","w":548},"\uf739":{"d":"193,25r-51,-60v47,-28,133,-100,182,-194v-157,8,-272,-71,-272,-178v0,-114,104,-205,214,-205v120,0,192,83,192,194v0,179,-141,359,-265,443xm260,-547v-72,0,-119,58,-119,124v0,99,97,144,211,135v10,-26,19,-70,19,-118v0,-95,-44,-141,-111,-141","w":511},"\uf73f":{"d":"25,-550r21,-72v148,24,292,95,292,197v0,126,-154,212,-220,238r-27,-60v60,-19,154,-77,154,-159v0,-100,-123,-131,-220,-144xm90,0r0,-88r95,0r0,88r-95,0","w":380},"\uf761":{"d":"91,18r-77,-44v48,-85,308,-566,328,-599r2,0v77,121,293,504,352,593r-81,49v-16,-32,-110,-200,-119,-215r-309,12v-12,27,-82,175,-96,204xm221,-249r244,-10v-10,-19,-115,-211,-124,-225v-13,20,-112,221,-120,235","w":710},"\uf762":{"d":"132,-315r0,-94v0,-25,-2,-168,-5,-186v48,0,108,0,144,3v183,14,212,83,212,130v0,33,-23,97,-121,135r0,2v67,9,149,54,149,130v4,118,-153,205,-384,200v5,-47,5,-303,5,-320xm216,-283r0,223v101,-7,202,-44,202,-130v0,-66,-89,-98,-202,-93xm216,-536r0,199v99,-1,179,-57,179,-114v0,-76,-115,-86,-179,-85","w":580},"\uf763":{"d":"547,-68r9,75v-17,3,-59,7,-114,7v-310,0,-386,-170,-386,-252v0,-144,136,-317,447,-372r14,76v-198,24,-368,134,-368,282v0,100,85,194,302,194v37,0,75,-5,96,-10","w":587},"\uf764":{"d":"132,-269r0,-105v0,-18,-1,-197,-5,-221v52,0,145,-1,224,5v297,23,323,164,323,223v0,272,-309,371,-548,371v4,-39,6,-250,6,-273xm218,-528r0,458v244,-16,364,-153,364,-277v0,-131,-135,-185,-364,-181","w":722},"\uf765":{"d":"448,-67r3,76v-30,0,-304,-9,-322,-9r3,-360v0,-14,-2,-219,-3,-235v22,0,259,-13,304,-16r4,72v-39,0,-203,4,-218,4r0,208v17,0,133,-4,188,-9r3,73r-191,-3r0,202v22,0,144,2,229,-3","w":528},"\uf766":{"d":"222,0r-98,0v15,-202,7,-392,4,-595v23,0,251,-9,303,-13r4,72r-216,4r0,208v17,0,146,-5,199,-8r3,71r-202,-3r0,78v0,13,-1,174,3,186","w":495},"\uf767":{"d":"582,-260r2,247v-41,15,-125,27,-201,27v-206,0,-328,-108,-328,-249v0,-100,106,-289,440,-376r18,78v-197,37,-365,164,-365,299v0,89,74,183,254,183v38,0,76,-5,94,-12r0,-138v0,-25,-2,-54,-3,-59r89,0","w":658},"\uf768":{"d":"223,0r-94,0r3,-350v0,-15,-3,-225,-5,-245r97,0r-5,266r385,-16r-3,-250r97,0r-7,355v0,11,2,224,4,240r-96,0r5,-282r-385,16","w":823},"\uf769":{"d":"224,-595v-7,92,-6,492,-1,595r-94,0r3,-350v0,-15,-3,-225,-5,-245r97,0","w":352},"\uf76a":{"d":"257,-595v-4,28,-6,253,-5,337v0,185,-90,279,-183,318r-44,-67v86,-36,140,-104,140,-253r-4,-335r96,0","w":365},"\uf76b":{"d":"223,9r-96,0v7,-113,5,-490,0,-613r96,0r-5,340v0,66,3,256,5,273xm607,-60r-62,68v-11,-12,-281,-279,-320,-321v15,-14,275,-257,296,-279r53,65v-36,28,-196,163,-245,208v28,33,242,227,278,259","w":658},"\uf76c":{"d":"128,-595r99,0v-9,82,-8,390,-8,528v22,0,130,0,227,-4r0,80v-29,0,-299,-9,-322,-9v15,-202,7,-392,4,-595","w":492},"\uf76d":{"d":"112,22r-82,-26v15,-36,200,-584,205,-605r4,0v27,54,191,364,218,413r232,-387r3,0v27,69,184,484,221,574r-83,31v-21,-64,-145,-412,-157,-445r-226,369r-2,0r-197,-371v-16,53,-127,414,-136,447","w":940},"\uf76e":{"d":"193,6r-92,-6v5,-64,30,-541,34,-629r5,0v26,28,443,448,471,475v0,-24,2,-417,3,-445r89,4v-4,51,-21,399,-25,613r-4,0v-28,-23,-461,-462,-477,-472v2,16,-5,432,-4,460","w":803},"\uf76f":{"d":"363,14v-199,0,-308,-131,-308,-281v0,-189,139,-342,359,-342v176,0,305,107,305,290v0,133,-94,333,-356,333xm371,-52v137,0,255,-95,255,-263v0,-152,-106,-228,-225,-228v-159,0,-254,118,-254,263v0,127,85,228,224,228","w":774},"\uf770":{"d":"219,0r-91,0r4,-395v0,-20,-2,-187,-2,-200v38,0,123,1,180,10v122,19,197,74,197,164v0,122,-119,215,-289,245xm218,-528r0,286v108,-21,197,-71,197,-169v0,-31,-20,-115,-197,-117","w":560},"\uf771":{"d":"719,82r-359,-69v-22,0,-141,-8,-218,-81v-51,-49,-87,-116,-87,-207v0,-183,148,-334,357,-334v176,0,306,106,306,280v0,110,-58,250,-214,306r0,3v80,8,168,17,231,21xm147,-282v0,130,89,229,224,229v147,0,255,-109,255,-268v0,-152,-116,-222,-219,-222v-197,0,-260,154,-260,261","w":773},"\uf772":{"d":"219,-530r0,270v0,32,3,247,5,260r-94,0r2,-377v0,-26,-2,-202,-5,-218v43,0,122,-2,198,7v120,14,190,63,190,137v0,70,-54,130,-129,174v23,31,184,207,210,232r-69,61v-10,-12,-216,-264,-243,-300v45,-23,136,-69,136,-154v0,-40,-31,-91,-201,-92","w":616},"\uf773":{"d":"128,16r-23,-70v92,-18,209,-55,209,-123v0,-44,-31,-65,-97,-97v-78,-38,-135,-74,-135,-136v0,-95,139,-178,268,-201r19,70v-59,9,-195,43,-195,117v0,46,65,69,104,91v69,38,129,65,129,136v0,88,-101,177,-279,213","w":480},"\uf774":{"d":"338,0r-104,0v7,-45,6,-391,6,-524v-103,0,-232,4,-245,8r0,-81v189,14,385,15,575,0r0,81v-2,-4,-170,-8,-243,-8r0,132v0,173,9,375,11,392","w":565},"\uf775":{"d":"184,-591v-2,18,-5,137,-4,197v0,138,8,201,42,257v35,57,86,82,151,82v78,0,123,-36,153,-81v60,-76,42,-328,38,-468r91,0v-1,202,19,431,-79,527v-54,62,-118,91,-215,91v-49,0,-144,-7,-208,-102v-47,-52,-63,-188,-60,-382v0,-39,1,-101,1,-121r90,0","w":740},"\uf776":{"d":"576,-610r80,42v-31,44,-302,540,-339,596v-17,-28,-284,-557,-308,-596r83,-42v14,39,216,453,234,480v15,-21,239,-452,250,-480","w":655},"\uf777":{"d":"858,-599r84,34v-8,22,-225,517,-250,566r-4,0v-34,-60,-189,-303,-213,-345r-218,374r-4,0v-28,-68,-188,-505,-223,-602r86,-34v29,98,143,426,158,471r204,-358r2,0r207,340v15,-42,156,-398,171,-446","w":945},"\uf778":{"d":"98,18r-63,-59v24,-19,216,-232,244,-264r-211,-232r66,-63v24,31,133,165,199,241v31,-33,188,-210,214,-240r61,60v-29,28,-207,204,-229,232r243,263r-69,61r-229,-271v-10,15,-210,256,-226,272","w":659},"\uf779":{"d":"600,-533v-120,34,-272,193,-264,352r0,76v0,12,3,88,5,105r-96,0r4,-181v-1,-170,-120,-293,-237,-350r37,-73v48,24,108,69,131,94v44,45,97,114,120,183v44,-128,155,-233,274,-279","w":585},"\uf77a":{"d":"77,-538r4,-73v51,7,477,16,487,22r-393,529v49,0,349,-3,370,-6r-3,75v-19,-2,-474,-5,-512,-11v38,-40,380,-505,400,-532v-35,0,-336,-4,-353,-4","w":601},"\uf7a1":{"d":"193,-595r0,88r-95,0r0,-88r95,0xm118,-405r55,-6v0,119,0,323,4,425r-104,-4v9,-81,34,-299,45,-415","w":273},"\uf7a2":{"d":"207,14r2,-139v-111,-24,-148,-120,-148,-158v0,-87,62,-163,148,-206r-2,-151r70,0r-3,124v27,-12,64,-20,101,-27r10,74v-163,15,-234,96,-234,175v-2,99,139,134,247,111r6,69v-40,8,-92,7,-130,3r3,125r-70,0","w":447},"\uf6f9":{"d":"224,-362v53,-21,104,-41,125,-51r20,57r-145,54r0,235v22,0,130,0,227,-4r0,80v-29,0,-299,-9,-322,-9v9,-64,8,-227,8,-269v-38,14,-67,26,-92,37r-19,-55v24,-9,60,-22,111,-43r-4,-265r99,0v-4,25,-9,172,-8,233","w":497},"\uf6fd":{"d":"128,16r-23,-70v92,-18,209,-55,209,-123v0,-44,-31,-65,-97,-97v-78,-38,-135,-74,-135,-136v0,-95,139,-178,268,-201r19,70v-59,9,-195,43,-195,117v0,46,65,69,104,91v69,38,129,65,129,136v0,88,-101,177,-279,213xm253,-679r-142,-93r38,-45r105,78r95,-78r37,45","w":480},"\uf6ff":{"d":"77,-538r4,-73v51,7,477,16,487,22r-393,529v49,0,349,-3,370,-6r-3,75v-19,-2,-474,-5,-512,-11v38,-40,380,-505,400,-532v-35,0,-336,-4,-353,-4xm309,-679r-142,-93r38,-45r105,78r95,-78r37,45","w":601},"\uf7bf":{"d":"355,-45r-21,72v-148,-24,-292,-95,-292,-197v0,-126,154,-212,220,-238r27,60v-60,19,-154,77,-154,159v0,100,123,131,220,144xm290,-595r0,88r-95,0r0,-88r95,0","w":380},"\u2074":{"d":"367,-425r-5,58r-64,-2r1,95r-61,0r3,-95r-226,0r-1,-7r279,-340r6,0r0,293xm242,-422r0,-166v-28,44,-105,137,-132,166r132,0","w":410},"\uf7e0":{"d":"91,18r-77,-44v48,-85,308,-566,328,-599r2,0v77,121,293,504,352,593r-81,49v-16,-32,-110,-200,-119,-215r-309,12v-12,27,-82,175,-96,204xm221,-249r244,-10v-10,-19,-115,-211,-124,-225v-13,20,-112,221,-120,235xm281,-821r129,112r-22,33r-151,-78","w":710},"\uf7e1":{"d":"91,18r-77,-44v48,-85,308,-566,328,-599r2,0v77,121,293,504,352,593r-81,49v-16,-32,-110,-200,-119,-215r-309,12v-12,27,-82,175,-96,204xm221,-249r244,-10v-10,-19,-115,-211,-124,-225v-13,20,-112,221,-120,235xm281,-709r130,-112r45,66r-151,80","w":710},"\uf7e2":{"d":"91,18r-77,-44v48,-85,308,-566,328,-599r2,0v77,121,293,504,352,593r-81,49v-16,-32,-110,-200,-119,-215r-309,12v-12,27,-82,175,-96,204xm221,-249r244,-10v-10,-19,-115,-211,-124,-225v-13,20,-112,221,-120,235xm210,-724r142,-95r133,95r-39,45r-97,-80r-105,80","w":710},"\uf7e3":{"d":"91,18r-77,-44v48,-85,308,-566,328,-599r2,0v77,121,293,504,352,593r-81,49v-16,-32,-110,-200,-119,-215r-309,12v-12,27,-82,175,-96,204xm221,-249r244,-10v-10,-19,-115,-211,-124,-225v-13,20,-112,221,-120,235xm415,-688v-49,2,-80,-38,-126,-38v-23,0,-41,20,-55,41r-39,-27v25,-41,56,-74,87,-74v56,-1,77,35,126,38v22,-1,41,-20,55,-41r39,31v-25,37,-56,70,-87,70","w":710},"\uf7e4":{"d":"91,18r-77,-44v48,-85,308,-566,328,-599r2,0v77,121,293,504,352,593r-81,49v-16,-32,-110,-200,-119,-215r-309,12v-12,27,-82,175,-96,204xm221,-249r244,-10v-10,-19,-115,-211,-124,-225v-13,20,-112,221,-120,235xm244,-688r-60,-61r60,-60r61,60xm454,-688r-61,-61r61,-60r60,60","w":710},"\uf7e5":{"d":"91,18r-77,-44v48,-85,308,-566,328,-599r2,0v77,121,293,504,352,593r-81,49v-16,-32,-110,-200,-119,-215r-309,12v-12,27,-82,175,-96,204xm221,-249r244,-10v-10,-19,-115,-211,-124,-225v-13,20,-112,221,-120,235xm444,-765v6,105,-193,116,-196,13v2,-51,49,-84,100,-84v64,0,96,33,96,71xm345,-715v24,0,47,-14,47,-45v0,-22,-18,-39,-45,-39v-21,0,-46,14,-46,43v0,25,20,41,44,41","w":710},"\uf7e6":{"d":"750,-66r4,75v-33,0,-316,-9,-334,-9r5,-234r-210,5r-164,246r-71,-51v47,-56,358,-477,425,-561v20,0,302,-13,331,-16r3,71v-29,0,-220,4,-231,4r0,236v13,0,157,-5,201,-10r3,71v-20,0,-189,-2,-204,-2r0,178v18,0,168,2,242,-3xm258,-289r167,-6r0,-225r-4,0","w":831},"\uf7e7":{"d":"355,10r-34,50v34,10,71,38,71,71v0,49,-74,92,-155,100r-10,-41v45,-2,93,-21,93,-56v0,-25,-32,-51,-62,-62r48,-71v-183,-38,-250,-157,-250,-239v0,-144,136,-317,447,-372r14,76v-198,24,-368,134,-368,282v0,100,85,194,302,194v37,0,75,-5,96,-10r9,75v-31,7,-146,10,-201,3","w":587},"\uf7e8":{"d":"448,-67r3,76v-30,0,-304,-9,-322,-9r3,-360v0,-14,-2,-219,-3,-235v22,0,259,-13,304,-16r4,72v-39,0,-203,4,-218,4r0,208v17,0,133,-4,188,-9r3,73r-191,-3r0,202v22,0,144,2,229,-3xm215,-821r129,112r-22,33r-151,-78","w":528},"\uf7e9":{"d":"448,-67r3,76v-30,0,-304,-9,-322,-9r3,-360v0,-14,-2,-219,-3,-235v22,0,259,-13,304,-16r4,72v-39,0,-203,4,-218,4r0,208v17,0,133,-4,188,-9r3,73r-191,-3r0,202v22,0,144,2,229,-3xm210,-709r130,-112r45,66r-151,80","w":528},"\uf7ea":{"d":"448,-67r3,76v-30,0,-304,-9,-322,-9r3,-360v0,-14,-2,-219,-3,-235v22,0,259,-13,304,-16r4,72v-39,0,-203,4,-218,4r0,208v17,0,133,-4,188,-9r3,73r-191,-3r0,202v22,0,144,2,229,-3xm139,-724r142,-95r133,95r-39,45r-97,-80r-105,80","w":528},"\uf7eb":{"d":"448,-67r3,76v-30,0,-304,-9,-322,-9r3,-360v0,-14,-2,-219,-3,-235v22,0,259,-13,304,-16r4,72v-39,0,-203,4,-218,4r0,208v17,0,133,-4,188,-9r3,73r-191,-3r0,202v22,0,144,2,229,-3xm163,-688r-60,-61r60,-60r61,60xm373,-688r-61,-61r61,-60r60,60","w":528},"\uf7ec":{"d":"224,-595v-7,92,-6,492,-1,595r-94,0r3,-350v0,-15,-3,-225,-5,-245r97,0xm107,-821r129,112r-22,33r-151,-78","w":352},"\uf7ed":{"d":"224,-595v-7,92,-6,492,-1,595r-94,0r3,-350v0,-15,-3,-225,-5,-245r97,0xm112,-709r130,-112r45,66r-151,80","w":352},"\uf7ee":{"d":"224,-595v-7,92,-6,492,-1,595r-94,0r3,-350v0,-15,-3,-225,-5,-245r97,0xm41,-724r142,-95r133,95r-39,45r-97,-80r-105,80","w":352},"\uf7ef":{"d":"224,-595v-7,92,-6,492,-1,595r-94,0r3,-350v0,-15,-3,-225,-5,-245r97,0xm65,-688r-60,-61r60,-60r61,60xm275,-688r-61,-61r61,-60r60,60","w":352},"\uf7f0":{"d":"137,-269v-43,2,-73,4,-91,5r-3,-60v18,0,48,-2,94,-4r-5,-267v52,0,146,-2,225,5v300,27,322,164,322,227v0,260,-296,367,-548,367v4,-57,6,-230,6,-273xm223,-274r0,204v244,-20,364,-145,364,-275v0,-136,-135,-186,-364,-183r0,196v51,-2,107,-6,148,-8r2,62v-45,1,-100,2,-150,4","w":727},"\uf7f1":{"d":"193,6r-92,-6v5,-64,30,-541,34,-629r5,0v26,28,443,448,471,475v0,-24,2,-417,3,-445r89,4v-4,51,-21,399,-25,613r-4,0v-28,-23,-461,-462,-477,-472v2,16,-5,432,-4,460xm477,-688v-49,2,-80,-38,-126,-38v-23,0,-41,20,-55,41r-39,-27v25,-41,56,-74,87,-74v56,-1,77,35,126,38v22,-1,41,-20,55,-41r39,31v-25,37,-56,70,-87,70","w":803},"\uf7f2":{"d":"363,14v-199,0,-308,-131,-308,-281v0,-189,139,-342,359,-342v176,0,305,107,305,290v0,133,-94,333,-356,333xm371,-52v137,0,255,-95,255,-263v0,-152,-106,-228,-225,-228v-159,0,-254,118,-254,263v0,127,85,228,224,228xm313,-821r129,112r-22,33r-151,-78","w":774},"\uf7f3":{"d":"363,14v-199,0,-308,-131,-308,-281v0,-189,139,-342,359,-342v176,0,305,107,305,290v0,133,-94,333,-356,333xm371,-52v137,0,255,-95,255,-263v0,-152,-106,-228,-225,-228v-159,0,-254,118,-254,263v0,127,85,228,224,228xm333,-709r130,-112r45,66r-151,80","w":774},"\uf7f4":{"d":"363,14v-199,0,-308,-131,-308,-281v0,-189,139,-342,359,-342v176,0,305,107,305,290v0,133,-94,333,-356,333xm371,-52v137,0,255,-95,255,-263v0,-152,-106,-228,-225,-228v-159,0,-254,118,-254,263v0,127,85,228,224,228xm252,-724r142,-95r133,95r-39,45r-97,-80r-105,80","w":774},"\uf7f5":{"d":"363,14v-199,0,-308,-131,-308,-281v0,-189,139,-342,359,-342v176,0,305,107,305,290v0,133,-94,333,-356,333xm371,-52v137,0,255,-95,255,-263v0,-152,-106,-228,-225,-228v-159,0,-254,118,-254,263v0,127,85,228,224,228xm462,-688v-49,2,-80,-38,-126,-38v-23,0,-41,20,-55,41r-39,-27v25,-41,56,-74,87,-74v56,-1,77,35,126,38v22,-1,41,-20,55,-41r39,31v-25,37,-56,70,-87,70","w":774},"\uf7f6":{"d":"363,14v-199,0,-308,-131,-308,-281v0,-189,139,-342,359,-342v176,0,305,107,305,290v0,133,-94,333,-356,333xm371,-52v137,0,255,-95,255,-263v0,-152,-106,-228,-225,-228v-159,0,-254,118,-254,263v0,127,85,228,224,228xm286,-688r-60,-61r60,-60r61,60xm496,-688r-61,-61r61,-60r60,60","w":774},"\uf6fa":{"d":"917,-335r3,71r-209,-3r0,203v23,0,173,2,247,-3r4,76v-33,0,-316,-9,-337,-9v1,-17,2,-54,3,-110r-3,0v-56,84,-151,124,-273,124v-188,0,-297,-140,-297,-283v0,-174,130,-340,359,-340v81,-1,160,29,214,91r-3,-77v25,0,290,-13,319,-16r3,71r-236,4r0,210v18,0,162,-4,206,-9xm372,-52v133,0,258,-102,258,-227r0,-60v0,-122,-106,-204,-227,-204v-189,0,-257,153,-257,262v0,115,79,229,226,229","w":1039},"\uf7f8":{"d":"368,14v-89,0,-155,-21,-204,-58v-27,23,-51,47,-78,72r-46,-51v26,-20,54,-42,80,-65v-42,-46,-64,-112,-64,-179v0,-189,141,-342,361,-342v73,0,139,20,190,59r80,-82r47,49v-28,25,-52,46,-81,75v41,45,64,110,64,189v0,129,-90,333,-349,333xm372,-50v128,0,256,-94,256,-265v0,-51,-3,-98,-31,-137r-375,353v40,35,90,49,150,49xm145,-280v0,50,8,100,34,135r374,-354v-42,-34,-92,-46,-149,-46v-159,0,-259,121,-259,265","w":774},"\uf7f9":{"d":"184,-591v-2,18,-5,137,-4,197v0,138,8,201,42,257v35,57,86,82,151,82v78,0,123,-36,153,-81v60,-76,42,-328,38,-468r91,0v-1,202,19,431,-79,527v-54,62,-118,91,-215,91v-49,0,-144,-7,-208,-102v-47,-52,-63,-188,-60,-382v0,-39,1,-101,1,-121r90,0xm306,-821r129,112r-22,33r-151,-78","w":740},"\uf7fa":{"d":"184,-591v-2,18,-5,137,-4,197v0,138,8,201,42,257v35,57,86,82,151,82v78,0,123,-36,153,-81v60,-76,42,-328,38,-468r91,0v-1,202,19,431,-79,527v-54,62,-118,91,-215,91v-49,0,-144,-7,-208,-102v-47,-52,-63,-188,-60,-382v0,-39,1,-101,1,-121r90,0xm316,-709r130,-112r45,66r-151,80","w":740},"\uf7fb":{"d":"184,-591v-2,18,-5,137,-4,197v0,138,8,201,42,257v35,57,86,82,151,82v78,0,123,-36,153,-81v60,-76,42,-328,38,-468r91,0v-1,202,19,431,-79,527v-54,62,-118,91,-215,91v-49,0,-144,-7,-208,-102v-47,-52,-63,-188,-60,-382v0,-39,1,-101,1,-121r90,0xm235,-724r142,-95r133,95r-39,45r-97,-80r-105,80","w":740},"\uf7fc":{"d":"184,-591v-2,18,-5,137,-4,197v0,138,8,201,42,257v35,57,86,82,151,82v78,0,123,-36,153,-81v60,-76,42,-328,38,-468r91,0v-1,202,19,431,-79,527v-54,62,-118,91,-215,91v-49,0,-144,-7,-208,-102v-47,-52,-63,-188,-60,-382v0,-39,1,-101,1,-121r90,0xm269,-688r-60,-61r60,-60r61,60xm479,-688r-61,-61r61,-60r60,60","w":740},"\uf7fd":{"d":"600,-533v-120,34,-272,193,-264,352r0,76v0,12,3,88,5,105r-96,0r4,-181v-1,-170,-120,-293,-237,-350r37,-73v48,24,108,69,131,94v44,45,97,114,120,183v44,-128,155,-233,274,-279xm239,-709r130,-112r45,66r-151,80","w":585},"\uf7fe":{"d":"218,-453r0,277v117,-9,195,-72,195,-156v0,-40,-23,-120,-195,-121xm219,-517v148,-5,287,62,288,174v0,115,-108,216,-289,231r1,140r-91,0r4,-430v0,-20,-2,-187,-2,-221r92,0v-2,37,-3,72,-3,106","w":564},"\uf7ff":{"d":"600,-533v-120,34,-272,193,-264,352r0,76v0,12,3,88,5,105r-96,0r4,-181v-1,-170,-120,-293,-237,-350r37,-73v48,24,108,69,131,94v44,45,97,114,120,183v44,-128,155,-233,274,-279xm192,-688r-60,-61r60,-60r61,60xm402,-688r-61,-61r61,-60r60,60","w":585},"\uf6c3":{"d":"363,226r49,-173r74,33r-93,154"},"\u0102":{"d":"102,19r-82,-52v57,-96,340,-667,369,-702v88,142,325,593,393,697r-85,56v-20,-38,-126,-243,-137,-259r-347,14v-12,19,-94,212,-111,246xm247,-293r283,-12v-11,-22,-134,-255,-144,-271v-15,22,-130,267,-139,283xm515,-878r35,43v-33,38,-97,75,-151,75v-51,0,-122,-39,-149,-73r38,-45v25,27,64,55,119,55v47,0,82,-25,108,-55","w":800},"\u0100":{"d":"102,19r-82,-52v57,-96,340,-667,369,-702v88,142,325,593,393,697r-85,56v-20,-38,-126,-243,-137,-259r-347,14v-12,19,-94,212,-111,246xm247,-293r283,-12v-11,-22,-134,-255,-144,-271v-15,22,-130,267,-139,283xm262,-770r8,-56r268,-3r-4,64","w":800},"\u0104":{"d":"247,-293r283,-12v-11,-22,-134,-255,-144,-271v-15,22,-130,267,-139,283xm102,19r-82,-52v57,-96,340,-667,369,-702v88,142,325,593,393,697v-48,31,-156,99,-153,142v0,27,27,63,89,75r-13,42v-74,-13,-151,-53,-151,-105v0,-40,43,-77,130,-123v-27,-52,-114,-220,-124,-234r-347,14v-12,19,-94,212,-111,246","w":800},"\u0106":{"d":"612,-74r10,80v-30,6,-76,10,-136,10v-341,0,-426,-204,-426,-296v0,-164,151,-373,504,-436r15,84v-229,26,-418,163,-418,335v0,122,96,237,335,237v40,0,82,-6,116,-14xm386,-787r137,-118r48,70r-159,84","w":660},"\u010c":{"d":"612,-74r10,80v-30,6,-76,10,-136,10v-341,0,-426,-204,-426,-296v0,-164,151,-373,504,-436r15,84v-229,26,-418,163,-418,335v0,122,96,237,335,237v40,0,82,-6,116,-14xm455,-755r-149,-98r40,-48r110,82r100,-82r39,48","w":660},"\u010e":{"d":"150,-316r0,-124v0,-21,-1,-232,-5,-260v57,0,168,-1,255,10v326,41,366,186,366,256v0,310,-394,439,-622,439v4,-46,6,-294,6,-321xm240,-625r0,542v273,-24,428,-185,428,-325v0,-152,-169,-220,-428,-217xm378,-755r-149,-98r40,-48r110,82r100,-82r39,48","w":826},"\u0110":{"d":"49,-310r-3,-69v20,0,53,-2,104,-4r-5,-317v57,0,168,-1,255,10v326,41,366,187,366,256v0,310,-394,439,-622,439v4,-46,6,-294,6,-321v-48,2,-81,4,-101,6xm396,-398r2,71v-44,1,-103,3,-158,6r0,238v273,-23,428,-195,428,-325v0,-147,-170,-220,-428,-217r0,237v56,-2,116,-7,156,-10","w":826},"\u011a":{"d":"480,-76r4,86v-16,0,-317,-10,-337,-10r3,-424v0,-16,-2,-257,-3,-276v24,0,285,-15,317,-19r4,79v-32,0,-212,5,-228,5r0,254v18,0,146,-5,195,-11r3,79v-22,0,-178,-4,-198,-4r0,244v24,0,158,3,240,-3xm322,-755r-149,-98r40,-48r110,82r100,-82r39,48","w":574},"\u0116":{"d":"480,-76r4,86v-16,0,-317,-10,-337,-10r3,-424v0,-16,-2,-257,-3,-276v24,0,285,-15,317,-19r4,79v-32,0,-212,5,-228,5r0,254v18,0,146,-5,195,-11r3,79v-22,0,-178,-4,-198,-4r0,244v24,0,158,3,240,-3xm317,-765r-71,-71r71,-70r71,70","w":574},"\u0112":{"d":"480,-76r4,86v-16,0,-317,-10,-337,-10r3,-424v0,-16,-2,-257,-3,-276v24,0,285,-15,317,-19r4,79v-32,0,-212,5,-228,5r0,254v18,0,146,-5,195,-11r3,79v-22,0,-178,-4,-198,-4r0,244v24,0,158,3,240,-3xm169,-770r8,-56r268,-3r-4,64","w":574},"\u0118":{"d":"480,-76r4,86v-1,0,-3,0,-20,-1v-51,32,-81,71,-81,95v0,27,27,63,89,75r-13,42v-74,-13,-151,-53,-151,-105v0,-41,47,-80,100,-108v-61,-2,-245,-8,-261,-8r3,-424v0,-16,-2,-257,-3,-276v24,0,285,-15,317,-19r4,79v-32,0,-212,5,-228,5r0,254v18,0,146,-5,195,-11r3,79v-22,0,-178,-4,-198,-4r0,244v24,0,158,3,240,-3","w":574},"\u011e":{"d":"651,-306r-1,150v0,38,3,127,3,140v-45,17,-138,32,-221,32v-227,0,-372,-127,-372,-292v0,-113,117,-341,495,-443r20,87v-228,44,-416,198,-416,357v0,104,96,220,294,220v42,0,83,-7,107,-15r0,-167v0,-29,-2,-63,-3,-69r94,0xm565,-878r35,43v-33,38,-97,75,-151,75v-51,0,-122,-39,-149,-73r38,-45v25,27,64,55,119,55v47,0,82,-25,108,-55","w":740},"\u0122":{"d":"651,-306r-1,150v0,38,3,127,3,140v-45,17,-138,32,-221,32v-227,0,-372,-127,-372,-292v0,-113,117,-341,495,-443r20,87v-228,44,-416,198,-416,357v0,104,96,220,294,220v42,0,83,-7,107,-15r0,-167v0,-29,-2,-63,-3,-69r94,0xm308,226r49,-173r74,33r-93,154","w":740},"\u012a":{"d":"245,-700v-7,108,-6,579,-1,700r-97,0r3,-412v0,-17,-3,-264,-5,-288r100,0xm57,-770r8,-56r268,-3r-4,64","w":390},"\u012e":{"d":"224,179r-13,42v-74,-13,-151,-53,-151,-105v0,-41,46,-80,111,-116r-24,0r3,-412v0,-17,-3,-264,-5,-288r100,0v-7,108,-6,579,-1,700r-16,0v-61,39,-93,79,-93,104v0,27,27,63,89,75","w":390},"\u0136":{"d":"245,10r-100,0v7,-132,5,-576,0,-720r100,0r-5,400v0,77,3,301,5,320xm667,-66r-66,70v-10,-14,-311,-324,-354,-372v17,-16,303,-298,326,-324r58,66v-38,36,-219,198,-272,251v31,38,270,272,308,309xm299,206r49,-173r74,33r-93,154","w":722},"\u0139":{"d":"146,-700r102,0v-9,99,-8,465,-8,628v24,0,142,0,238,-4r0,86v-14,0,-311,-10,-336,-10v15,-239,7,-462,4,-700xm140,-787r137,-118r48,70r-159,84","w":533},"\u013d":{"d":"146,-700r102,0v-9,99,-8,465,-8,628v24,0,142,0,238,-4r0,86v-14,0,-311,-10,-336,-10v15,-239,7,-462,4,-700xm344,-527r49,-173r74,33r-93,154","w":533},"\u013b":{"d":"146,-700r102,0v-9,99,-8,465,-8,628v24,0,142,0,238,-4r0,86v-14,0,-311,-10,-336,-10v15,-239,7,-462,4,-700xm224,226r49,-173r74,33r-93,154","w":533},"\u0143":{"d":"211,7r-94,-7v5,-75,32,-637,37,-740v33,30,511,535,546,567v0,-28,6,-499,7,-532r93,5v-6,58,-19,476,-29,721v-29,-27,-530,-548,-553,-571v0,35,-8,524,-7,557xm414,-767r137,-118r48,70r-159,84","w":915},"\u0147":{"d":"211,7r-94,-7v5,-75,32,-637,37,-740v33,30,511,535,546,567v0,-28,6,-499,7,-532r93,5v-6,58,-19,476,-29,721v-29,-27,-530,-548,-553,-571v0,35,-8,524,-7,557xm463,-735r-149,-98r40,-48r110,82r100,-82r39,48","w":915},"\u0145":{"d":"211,7r-94,-7v5,-75,32,-637,37,-740v33,30,511,535,546,567v0,-28,6,-499,7,-532r93,5v-6,58,-19,476,-29,721v-29,-27,-530,-548,-553,-571v0,35,-8,524,-7,557xm396,206r49,-173r74,33r-93,154","w":915},"\u0150":{"d":"402,16v-218,0,-342,-154,-342,-330v0,-222,157,-402,398,-402v189,0,332,125,332,341v0,156,-104,391,-388,391xm411,-58v150,0,282,-115,282,-312v0,-179,-118,-272,-249,-272v-179,0,-288,142,-288,313v0,149,98,271,255,271xm445,-780r113,-140r55,54r-135,114xm315,-780r89,-136r59,49r-114,114"},"\u014c":{"d":"402,16v-218,0,-342,-154,-342,-330v0,-222,157,-402,398,-402v189,0,332,125,332,341v0,156,-104,391,-388,391xm411,-58v150,0,282,-115,282,-312v0,-179,-118,-272,-249,-272v-179,0,-288,142,-288,313v0,149,98,271,255,271xm307,-770r8,-56r268,-3r-4,64"},"\u0154":{"d":"240,-633r0,327v0,38,3,291,5,306r-97,0v5,-84,1,-362,2,-444v0,-30,-2,-237,-5,-256v47,0,131,1,208,10v132,16,207,72,207,157v0,85,-57,151,-139,203v25,34,205,257,233,287r-76,61v-11,-14,-236,-309,-266,-351v50,-27,150,-88,150,-186v0,-45,-33,-112,-222,-114xm302,-787r137,-118r48,70r-159,84","w":692},"\u0158":{"d":"240,-633r0,327v0,38,3,291,5,306r-97,0v5,-84,1,-362,2,-444v0,-30,-2,-237,-5,-256v47,0,131,1,208,10v132,16,207,72,207,157v0,85,-57,151,-139,203v25,34,205,257,233,287r-76,61v-11,-14,-236,-309,-266,-351v50,-27,150,-88,150,-186v0,-45,-33,-112,-222,-114xm351,-755r-149,-98r40,-48r110,82r100,-82r39,48","w":692},"\u0156":{"d":"240,-633r0,327v0,38,3,291,5,306r-97,0v5,-84,1,-362,2,-444v0,-30,-2,-237,-5,-256v47,0,131,1,208,10v132,16,207,72,207,157v0,85,-57,151,-139,203v25,34,205,257,233,287r-76,61v-11,-14,-236,-309,-266,-351v50,-27,150,-88,150,-186v0,-45,-33,-112,-222,-114xm284,226r49,-173r74,33r-93,154","w":692},"\u015a":{"d":"146,18r-26,-75v98,-20,223,-70,223,-151v0,-50,-32,-76,-104,-115v-85,-46,-144,-88,-144,-159v0,-106,148,-205,285,-236r21,77v-61,10,-209,58,-209,142v0,52,71,84,113,109v76,45,137,77,137,158v0,98,-104,205,-296,250xm229,-787r137,-118r48,70r-159,84","w":527},"\u015e":{"d":"146,18r-26,-75v98,-20,223,-70,223,-151v0,-50,-32,-76,-104,-115v-85,-46,-144,-88,-144,-159v0,-106,148,-205,285,-236r21,77v-61,10,-209,58,-209,142v0,52,71,84,113,109v76,45,137,77,137,158v0,62,-42,128,-135,188r-50,97v35,10,74,40,74,75v0,51,-78,96,-163,105r-10,-43v47,-2,95,-22,97,-59v0,-27,-33,-54,-65,-65r37,-73v-25,10,-52,18,-81,25","w":527},"\uf6c1":{"d":"146,18r-26,-75v98,-20,223,-70,223,-151v0,-50,-32,-76,-104,-115v-85,-46,-144,-88,-144,-159v0,-106,148,-205,285,-236r21,77v-61,10,-209,58,-209,142v0,52,71,84,113,109v76,45,137,77,137,158v0,62,-42,128,-135,188r-50,97v35,10,74,40,74,75v0,51,-78,96,-163,105r-10,-43v47,-2,95,-22,97,-59v0,-27,-33,-54,-65,-65r37,-73v-25,10,-52,18,-81,25","w":527},"\u0218":{"d":"146,18r-26,-75v98,-20,223,-70,223,-151v0,-50,-32,-76,-104,-115v-85,-46,-144,-88,-144,-159v0,-106,148,-205,285,-236r21,77v-61,10,-209,58,-209,142v0,52,71,84,113,109v76,45,137,77,137,158v0,98,-104,205,-296,250xm202,226r49,-173r74,33r-93,154","w":527},"\u0164":{"d":"382,0r-108,0v7,-58,6,-465,6,-626v-115,0,-257,5,-283,9r0,-85v230,17,426,17,656,0r0,85v-14,-4,-199,-9,-283,-9r0,165v0,203,10,441,12,461xm330,-755r-149,-98r40,-48r110,82r100,-82r39,48","w":650},"\u0162":{"d":"382,0r-108,0v7,-58,6,-465,6,-626v-115,0,-257,5,-283,9r0,-85v230,17,426,17,656,0r0,85v-14,-4,-199,-9,-283,-9r0,165v0,203,10,441,12,461xm263,226r49,-173r74,33r-93,154","w":650},"\u0170":{"d":"206,-695v-3,22,-6,161,-5,232v0,162,7,236,46,305v39,68,101,97,173,97v86,0,141,-43,174,-95v68,-93,49,-388,43,-554r95,0v-2,233,23,507,-85,620v-59,72,-134,106,-240,106v-54,0,-163,-8,-233,-119v-47,-75,-64,-153,-64,-396r1,-196r95,0xm417,-780r113,-140r55,54r-135,114xm287,-780r89,-136r59,49r-114,114","w":833},"\u016a":{"d":"206,-695v-3,22,-6,161,-5,232v0,162,7,236,46,305v39,68,101,97,173,97v86,0,141,-43,174,-95v68,-93,49,-388,43,-554r95,0v-2,233,23,507,-85,620v-59,72,-134,106,-240,106v-54,0,-163,-8,-233,-119v-47,-75,-64,-153,-64,-396r1,-196r95,0xm279,-770r8,-56r268,-3r-4,64","w":833},"\u0172":{"d":"500,179r-13,42v-74,-13,-151,-53,-151,-105v0,-38,39,-74,87,-101v-5,1,-10,1,-16,1v-54,0,-163,-8,-233,-119v-47,-75,-64,-153,-64,-396r1,-196r95,0v-3,22,-6,161,-5,232v0,162,7,236,46,305v39,68,101,97,173,97v86,0,141,-43,174,-95v68,-93,49,-388,43,-554r95,0v-2,233,23,507,-85,620v-40,49,-88,80,-148,94v-56,34,-88,75,-88,100v0,27,27,63,89,75","w":833},"\u016e":{"d":"206,-695v-3,22,-6,161,-5,232v0,162,7,236,46,305v39,68,101,97,173,97v86,0,141,-43,174,-95v68,-93,49,-388,43,-554r95,0v-2,233,23,507,-85,620v-59,72,-134,106,-240,106v-54,0,-163,-8,-233,-119v-47,-75,-64,-153,-64,-396r1,-196r95,0xm530,-825v6,109,-204,122,-206,13v2,-53,51,-88,105,-88v67,0,101,35,101,75xm426,-773v25,0,49,-15,49,-47v0,-23,-19,-41,-47,-41v-22,0,-48,15,-48,45v0,26,21,43,46,43","w":833},"\u0179":{"d":"92,-643r4,-76v65,8,533,20,555,26v-46,50,-436,613,-446,627v54,0,387,-3,415,-7r-4,83v-24,-2,-524,-6,-571,-12v45,-44,429,-599,453,-632v-39,0,-377,-9,-406,-9xm300,-787r137,-118r48,70r-159,84","w":688},"\u017b":{"d":"92,-643r4,-76v65,8,533,20,555,26v-46,50,-436,613,-446,627v54,0,387,-3,415,-7r-4,83v-24,-2,-524,-6,-571,-12v45,-44,429,-599,453,-632v-39,0,-377,-9,-406,-9xm364,-765r-71,-71r71,-70r71,70","w":688},"\u0130":{"d":"245,-700v-7,108,-6,579,-1,700r-97,0r3,-412v0,-17,-3,-264,-5,-288r100,0xm195,-765r-71,-71r71,-70r71,70","w":390},"\u0103":{"d":"91,18r-77,-44v48,-85,308,-566,328,-599r2,0v77,121,293,504,352,593r-81,49v-16,-32,-110,-200,-119,-215r-309,12v-12,27,-82,175,-96,204xm221,-249r244,-10v-10,-19,-115,-211,-124,-225v-13,20,-112,221,-120,235xm450,-795r34,41v-32,36,-93,71,-144,71v-48,0,-116,-37,-142,-69r37,-43v23,26,60,52,113,52v44,0,78,-24,102,-52","w":710},"\u0101":{"d":"91,18r-77,-44v48,-85,308,-566,328,-599r2,0v77,121,293,504,352,593r-81,49v-16,-32,-110,-200,-119,-215r-309,12v-12,27,-82,175,-96,204xm221,-249r244,-10v-10,-19,-115,-211,-124,-225v-13,20,-112,221,-120,235xm211,-691r7,-54r255,-2r-4,60","w":710},"\u0105":{"d":"221,-249r244,-10v-10,-19,-115,-211,-124,-225v-13,20,-112,221,-120,235xm91,18r-77,-44v48,-85,308,-566,328,-599r2,0v77,121,293,504,352,593r-78,47v-46,27,-69,63,-69,84v0,26,26,60,85,72r-12,39v-71,-12,-144,-50,-144,-99v0,-39,42,-75,122,-121v-23,-44,-96,-175,-104,-188r-309,12v-12,27,-82,175,-96,204","w":710},"\u0107":{"d":"547,-68r9,75v-17,3,-59,7,-114,7v-310,0,-386,-170,-386,-252v0,-144,136,-317,447,-372r14,76v-198,24,-368,134,-368,282v0,100,85,194,302,194v37,0,75,-5,96,-10xm340,-709r130,-112r45,66r-151,80","w":587},"\u010d":{"d":"547,-68r9,75v-17,3,-59,7,-114,7v-310,0,-386,-170,-386,-252v0,-144,136,-317,447,-372r14,76v-198,24,-368,134,-368,282v0,100,85,194,302,194v37,0,75,-5,96,-10xm402,-679r-142,-93r38,-45r105,78r95,-78r37,45","w":587},"\u010f":{"d":"132,-269r0,-105v0,-18,-1,-197,-5,-221v52,0,145,-1,224,5v297,23,323,164,323,223v0,272,-309,371,-548,371v4,-39,6,-250,6,-273xm218,-528r0,458v244,-16,364,-153,364,-277v0,-131,-135,-185,-364,-181xm329,-679r-142,-93r38,-45r105,78r95,-78r37,45","w":722},"\u0111":{"d":"137,-269v-43,2,-73,4,-91,5r-3,-60v18,0,48,-2,94,-4r-5,-267v52,0,146,-2,225,5v300,27,322,164,322,227v0,260,-296,367,-548,367v4,-57,6,-230,6,-273xm223,-274r0,204v244,-20,364,-145,364,-275v0,-136,-135,-186,-364,-183r0,196v51,-2,107,-6,148,-8r2,62v-45,1,-100,2,-150,4","w":727},"\u011b":{"d":"448,-67r3,76v-30,0,-304,-9,-322,-9r3,-360v0,-14,-2,-219,-3,-235v22,0,259,-13,304,-16r4,72v-39,0,-203,4,-218,4r0,208v17,0,133,-4,188,-9r3,73r-191,-3r0,202v22,0,144,2,229,-3xm292,-679r-142,-93r38,-45r105,78r95,-78r37,45","w":528},"\u0117":{"d":"448,-67r3,76v-30,0,-304,-9,-322,-9r3,-360v0,-14,-2,-219,-3,-235v22,0,259,-13,304,-16r4,72v-39,0,-203,4,-218,4r0,208v17,0,133,-4,188,-9r3,73r-191,-3r0,202v22,0,144,2,229,-3xm293,-689r-67,-67r67,-67r67,67","w":528},"\u0113":{"d":"448,-67r3,76v-30,0,-304,-9,-322,-9r3,-360v0,-14,-2,-219,-3,-235v22,0,259,-13,304,-16r4,72v-39,0,-203,4,-218,4r0,208v17,0,133,-4,188,-9r3,73r-191,-3r0,202v22,0,144,2,229,-3xm150,-691r7,-54r255,-2r-4,60","w":528},"\u0119":{"d":"448,-67r3,76v-2,0,-5,0,-23,-1v-50,31,-79,68,-79,91v0,26,26,60,85,72r-12,39v-71,-12,-144,-50,-144,-99v0,-40,44,-77,97,-104v-69,-2,-232,-7,-246,-7r3,-360v0,-14,-2,-219,-3,-235v22,0,259,-13,304,-16r4,72v-39,0,-203,4,-218,4r0,208v17,0,133,-4,188,-9r3,73r-191,-3r0,202v22,0,144,2,229,-3","w":528},"\u011f":{"d":"582,-260r2,247v-41,15,-125,27,-201,27v-206,0,-328,-108,-328,-249v0,-100,106,-289,440,-376r18,78v-197,37,-365,164,-365,299v0,89,74,183,254,183v38,0,76,-5,94,-12r0,-138v0,-25,-2,-54,-3,-59r89,0xm514,-795r34,41v-32,36,-93,71,-144,71v-48,0,-116,-37,-142,-69r37,-43v23,26,60,52,113,52v44,0,78,-24,102,-52","w":658},"\u0123":{"d":"582,-260r2,247v-41,15,-125,27,-201,27v-206,0,-328,-108,-328,-249v0,-100,106,-289,440,-376r18,78v-197,37,-365,164,-365,299v0,89,74,183,254,183v38,0,76,-5,94,-12r0,-138v0,-25,-2,-54,-3,-59r89,0xm270,206r47,-163r71,32r-89,145","w":658},"\u012b":{"d":"224,-595v-7,92,-6,492,-1,595r-94,0r3,-350v0,-15,-3,-225,-5,-245r97,0xm42,-691r7,-54r255,-2r-4,60","w":352},"\u012f":{"d":"202,171r-12,39v-71,-12,-144,-50,-144,-99v0,-38,41,-74,110,-111r-27,0r3,-350v0,-15,-3,-225,-5,-245r97,0v-7,92,-6,492,-1,595r-17,0v-59,39,-89,76,-89,99v0,26,26,60,85,72","w":352},"\u0137":{"d":"223,9r-96,0v7,-113,5,-490,0,-613r96,0r-5,340v0,66,3,256,5,273xm607,-60r-62,68v-11,-12,-281,-279,-320,-321v15,-14,275,-257,296,-279r53,65v-36,28,-196,163,-245,208v28,33,242,227,278,259xm270,186r47,-163r71,32r-89,145","w":658},"\u013a":{"d":"128,-595r99,0v-9,82,-8,390,-8,528v22,0,130,0,227,-4r0,80v-29,0,-299,-9,-322,-9v15,-202,7,-392,4,-595xm112,-709r130,-112r45,66r-151,80","w":492},"\u013e":{"d":"128,-595r99,0v-9,82,-8,390,-8,528v22,0,130,0,227,-4r0,80v-29,0,-299,-9,-322,-9v15,-202,7,-392,4,-595xm327,-432r47,-163r71,32r-89,145","w":492},"\u013c":{"d":"128,-595r99,0v-9,82,-8,390,-8,528v22,0,130,0,227,-4r0,80v-29,0,-299,-9,-322,-9v15,-202,7,-392,4,-595xm207,206r47,-163r71,32r-89,145","w":492},"\u0144":{"d":"193,6r-92,-6v5,-64,30,-541,34,-629r5,0v26,28,443,448,471,475v0,-24,2,-417,3,-445r89,4v-4,51,-21,399,-25,613r-4,0v-28,-23,-461,-462,-477,-472v2,16,-5,432,-4,460xm338,-689r130,-112r45,66r-151,80","w":803},"\u0148":{"d":"193,6r-92,-6v5,-64,30,-541,34,-629r5,0v26,28,443,448,471,475v0,-24,2,-417,3,-445r89,4v-4,51,-21,399,-25,613r-4,0v-28,-23,-461,-462,-477,-472v2,16,-5,432,-4,460xm410,-659r-142,-93r38,-45r105,78r95,-78r37,45","w":803},"\u0146":{"d":"193,6r-92,-6v5,-64,30,-541,34,-629r5,0v26,28,443,448,471,475v0,-24,2,-417,3,-445r89,4v-4,51,-21,399,-25,613r-4,0v-28,-23,-461,-462,-477,-472v2,16,-5,432,-4,460xm343,186r47,-163r71,32r-89,145","w":803},"\u0151":{"d":"363,14v-199,0,-308,-131,-308,-281v0,-189,139,-342,359,-342v176,0,305,107,305,290v0,133,-94,333,-356,333xm371,-52v137,0,255,-95,255,-263v0,-152,-106,-228,-225,-228v-159,0,-254,118,-254,263v0,127,85,228,224,228xm419,-703r107,-133r53,51r-129,109xm295,-703r85,-129r56,47r-108,108","w":774},"\u014d":{"d":"363,14v-199,0,-308,-131,-308,-281v0,-189,139,-342,359,-342v176,0,305,107,305,290v0,133,-94,333,-356,333xm371,-52v137,0,255,-95,255,-263v0,-152,-106,-228,-225,-228v-159,0,-254,118,-254,263v0,127,85,228,224,228xm263,-691r7,-54r255,-2r-4,60","w":774},"\u0155":{"d":"219,-530r0,270v0,32,3,247,5,260r-94,0r2,-377v0,-26,-2,-202,-5,-218v43,0,122,-2,198,7v120,14,190,63,190,137v0,70,-54,130,-129,174v23,31,184,207,210,232r-69,61v-10,-12,-216,-264,-243,-300v45,-23,136,-69,136,-154v0,-40,-31,-91,-201,-92xm254,-709r130,-112r45,66r-151,80","w":616},"\u0159":{"d":"219,-530r0,270v0,32,3,247,5,260r-94,0r2,-377v0,-26,-2,-202,-5,-218v43,0,122,-2,198,7v120,14,190,63,190,137v0,70,-54,130,-129,174v23,31,184,207,210,232r-69,61v-10,-12,-216,-264,-243,-300v45,-23,136,-69,136,-154v0,-40,-31,-91,-201,-92xm316,-679r-142,-93r38,-45r105,78r95,-78r37,45","w":616},"\u0157":{"d":"219,-530r0,270v0,32,3,247,5,260r-94,0r2,-377v0,-26,-2,-202,-5,-218v43,0,122,-2,198,7v120,14,190,63,190,137v0,70,-54,130,-129,174v23,31,184,207,210,232r-69,61v-10,-12,-216,-264,-243,-300v45,-23,136,-69,136,-154v0,-40,-31,-91,-201,-92xm249,206r47,-163r71,32r-89,145","w":616},"\u015b":{"d":"128,16r-23,-70v92,-18,209,-55,209,-123v0,-44,-31,-65,-97,-97v-78,-38,-135,-74,-135,-136v0,-95,139,-178,268,-201r19,70v-59,9,-195,43,-195,117v0,46,65,69,104,91v69,38,129,65,129,136v0,88,-101,177,-279,213xm206,-709r130,-112r45,66r-151,80","w":480},"\u015f":{"d":"128,16r-23,-70v92,-18,209,-55,209,-123v0,-44,-31,-65,-97,-97v-78,-38,-135,-74,-135,-136v0,-95,139,-178,268,-201r19,70v-59,9,-195,43,-195,117v0,46,65,69,104,91v69,38,129,65,129,136v0,60,-47,120,-133,163r-63,94v34,10,71,38,71,71v0,49,-74,92,-155,100r-10,-41v45,-2,93,-21,93,-56v0,-25,-32,-51,-62,-62r47,-73v-22,7,-44,12,-67,17","w":480},"\uf6c2":{"d":"128,16r-23,-70v92,-18,209,-55,209,-123v0,-44,-31,-65,-97,-97v-78,-38,-135,-74,-135,-136v0,-95,139,-178,268,-201r19,70v-59,9,-195,43,-195,117v0,46,65,69,104,91v69,38,129,65,129,136v0,60,-47,120,-133,163r-63,94v34,10,71,38,71,71v0,49,-74,92,-155,100r-10,-41v45,-2,93,-21,93,-56v0,-25,-32,-51,-62,-62r47,-73v-22,7,-44,12,-67,17","w":480},"\u0219":{"d":"128,16r-23,-70v92,-18,209,-55,209,-123v0,-44,-31,-65,-97,-97v-78,-38,-135,-74,-135,-136v0,-95,139,-178,268,-201r19,70v-59,9,-195,43,-195,117v0,46,65,69,104,91v69,38,129,65,129,136v0,88,-101,177,-279,213xm181,206r47,-163r71,32r-89,145","w":480},"\u0165":{"d":"338,0r-104,0v7,-45,6,-391,6,-524v-103,0,-232,4,-245,8r0,-81v189,14,385,15,575,0r0,81v-2,-4,-170,-8,-243,-8r0,132v0,173,9,375,11,392xm291,-679r-142,-93r38,-45r105,78r95,-78r37,45","w":565},"\u0163":{"d":"338,0r-104,0v7,-45,6,-391,6,-524v-103,0,-232,4,-245,8r0,-81v189,14,385,15,575,0r0,81v-2,-4,-170,-8,-243,-8r0,132v0,173,9,375,11,392xm224,206r47,-163r71,32r-89,145","w":565},"\u0171":{"d":"184,-591v-2,18,-5,137,-4,197v0,138,8,201,42,257v35,57,86,82,151,82v78,0,123,-36,153,-81v60,-76,42,-328,38,-468r91,0v-1,202,19,431,-79,527v-54,62,-118,91,-215,91v-49,0,-144,-7,-208,-102v-47,-52,-63,-188,-60,-382v0,-39,1,-101,1,-121r90,0xm362,-703r107,-133r53,51r-129,109xm238,-703r85,-129r56,47r-108,108","w":740},"\u016b":{"d":"184,-591v-2,18,-5,137,-4,197v0,138,8,201,42,257v35,57,86,82,151,82v78,0,123,-36,153,-81v60,-76,42,-328,38,-468r91,0v-1,202,19,431,-79,527v-54,62,-118,91,-215,91v-49,0,-144,-7,-208,-102v-47,-52,-63,-188,-60,-382v0,-39,1,-101,1,-121r90,0xm246,-691r7,-54r255,-2r-4,60","w":740},"\u0173":{"d":"444,171r-12,39v-71,-12,-144,-50,-144,-99v0,-37,39,-72,85,-98v-66,4,-147,-3,-220,-101v-47,-52,-63,-188,-60,-382v0,-39,1,-101,1,-121r90,0v-2,18,-5,137,-4,197v0,138,8,201,42,257v35,57,86,82,151,82v78,0,123,-36,153,-81v60,-76,42,-328,38,-468r91,0v-1,202,19,431,-79,527v-37,42,-79,69,-133,82v-53,32,-84,71,-84,94v0,26,26,60,85,72","w":740},"\u016f":{"d":"184,-591v-2,18,-5,137,-4,197v0,138,8,201,42,257v35,57,86,82,151,82v78,0,123,-36,153,-81v60,-76,42,-328,38,-468r91,0v-1,202,19,431,-79,527v-54,62,-118,91,-215,91v-49,0,-144,-7,-208,-102v-47,-52,-63,-188,-60,-382v0,-39,1,-101,1,-121r90,0xm469,-745v6,105,-193,116,-196,13v2,-51,49,-84,100,-84v64,0,96,33,96,71xm370,-695v24,0,47,-14,47,-45v0,-22,-18,-39,-45,-39v-21,0,-46,14,-46,43v0,25,20,41,44,41","w":740},"\u017a":{"d":"77,-538r4,-73v51,7,477,16,487,22r-393,529v49,0,349,-3,370,-6r-3,75v-19,-2,-474,-5,-512,-11v38,-40,380,-505,400,-532v-35,0,-336,-4,-353,-4xm227,-709r130,-112r45,66r-151,80","w":601},"\u017c":{"d":"77,-538r4,-73v51,7,477,16,487,22r-393,529v49,0,349,-3,370,-6r-3,75v-19,-2,-474,-5,-512,-11v38,-40,380,-505,400,-532v-35,0,-336,-4,-353,-4xm310,-689r-67,-67r67,-67r67,67","w":601},"\u0384":{"d":"404,-536r-20,-176r82,-4r-18,181"},"\u0391":{"d":"102,19r-82,-52v57,-96,340,-667,369,-702v88,142,325,593,393,697r-85,56v-20,-38,-126,-243,-137,-259r-347,14v-12,19,-94,212,-111,246xm247,-293r283,-12v-11,-22,-134,-255,-144,-271v-15,22,-130,267,-139,283","w":800},"\u0392":{"d":"150,-370r0,-111v0,-30,-2,-198,-5,-219v53,0,99,1,138,6v202,17,230,95,230,151v0,38,-20,107,-126,156r0,2v69,11,157,66,157,156v1,121,-158,237,-399,235v5,-55,5,-357,5,-376xm236,-336r0,270v109,-11,208,-63,208,-157v0,-70,-82,-119,-208,-113xm236,-636r0,243v110,-3,183,-70,183,-137v0,-90,-114,-104,-183,-106","w":640},"\u0393":{"d":"247,0r-100,0r3,-424v0,-16,-2,-257,-3,-276v24,0,285,-15,317,-19r4,79v-32,0,-212,5,-228,5r0,254v0,114,1,322,7,381","w":488},"\u2206":{"d":"799,1r-1,3v-84,-4,-239,-4,-407,-4v-130,1,-268,0,-388,2r-1,-3v53,-86,313,-597,394,-723v78,131,334,620,403,725xm652,-79v-11,-18,-219,-413,-259,-488v-42,77,-247,473,-256,489v29,1,142,3,255,3v114,1,229,-1,260,-4","w":793},"\u0395":{"d":"480,-76r4,86v-16,0,-317,-10,-337,-10r3,-424v0,-16,-2,-257,-3,-276v24,0,285,-15,317,-19r4,79v-32,0,-212,5,-228,5r0,254v18,0,146,-5,195,-11r3,79v-22,0,-178,-4,-198,-4r0,244v24,0,158,3,240,-3","w":574},"\u0396":{"d":"92,-643r4,-76v65,8,533,20,555,26v-46,50,-436,613,-446,627v54,0,387,-3,415,-7r-4,83v-24,-2,-524,-6,-571,-12v45,-44,429,-599,453,-632v-39,0,-377,-9,-406,-9","w":688},"\u0397":{"d":"244,0r-97,0r3,-412v0,-17,-3,-264,-5,-288r100,0r-5,318r446,-19r-4,-299r102,0v-3,24,-8,294,-8,318r4,382r-100,0v3,-34,6,-212,6,-231r0,-104r-446,19","w":926},"\u0398":{"d":"402,16v-218,0,-342,-154,-342,-330v0,-222,157,-402,398,-402v189,0,332,125,332,341v0,156,-104,391,-388,391xm411,-58v150,0,282,-115,282,-312v0,-179,-118,-272,-249,-272v-179,0,-288,142,-288,313v0,149,98,271,255,271xm262,-299r-3,-74v76,1,276,-11,330,-17r6,74v-96,3,-263,11,-333,17","w":849},"\u0399":{"d":"245,-700v-7,108,-6,579,-1,700r-97,0r3,-412v0,-17,-3,-264,-5,-288r100,0","w":390},"\u039a":{"d":"245,10r-100,0v7,-132,5,-576,0,-720r100,0r-5,400v0,77,3,301,5,320xm667,-66r-66,70v-10,-14,-311,-324,-354,-372v17,-16,303,-298,326,-324r58,66v-38,36,-219,198,-272,251v31,38,270,272,308,309","w":722},"\u039b":{"d":"101,18r-83,-47v57,-96,343,-671,374,-706v85,142,323,595,391,699r-85,53v-11,-23,-299,-569,-309,-585v-14,26,-268,544,-288,586","w":800},"\u039c":{"d":"124,26r-82,-31v21,-42,229,-690,240,-711v31,63,219,433,249,483v37,-56,240,-424,264,-452v35,82,214,569,257,674r-86,37v-25,-75,-178,-494,-194,-531v-38,55,-210,372,-256,434v-58,-108,-182,-351,-222,-442","w":1093},"\u039d":{"d":"211,7r-94,-7v5,-75,32,-637,37,-740v33,30,511,535,546,567v0,-28,6,-499,7,-532r93,5v-6,58,-19,476,-29,721v-29,-27,-530,-548,-553,-571v0,35,-8,524,-7,557","w":915},"\u039e":{"d":"115,-609r-3,-83v114,1,358,-6,507,-12r4,85v-132,0,-376,5,-508,10xm89,-4r1,-84v158,7,359,11,547,2r3,86v-133,1,-423,-3,-551,-4xm143,-306r-3,-82v109,3,353,-7,440,-10r4,85v-70,-3,-314,4,-441,7","w":728},"\u039f":{"d":"420,16v-218,0,-342,-154,-342,-330v0,-222,157,-402,398,-402v189,0,332,125,332,341v0,156,-104,391,-388,391xm429,-58v150,0,282,-115,282,-312v0,-179,-118,-272,-249,-272v-179,0,-288,142,-288,313v0,149,98,271,255,271"},"\u03a0":{"d":"423,-692v42,-1,281,-5,393,-12r0,84r-93,-5r-2,343v0,13,3,263,6,282r-98,0r3,-455v0,-43,-1,-151,-3,-171v-60,1,-308,4,-375,6v-9,157,-5,464,-1,620r-96,0r3,-412v0,-17,-1,-161,-2,-204v-37,2,-72,5,-93,6r0,-81v91,0,311,0,358,-1","w":871},"\u03a1":{"d":"240,0r-94,0r5,-465v0,-23,-3,-220,-3,-235v42,0,126,3,188,13v134,22,218,86,218,192v0,137,-126,248,-316,286xm238,-626r0,347v126,-27,219,-91,219,-201v0,-30,-17,-143,-219,-146","w":614},"\u03a3":{"d":"506,-365r0,5v-77,63,-212,170,-305,238r0,5v114,21,341,56,401,64r-14,80v-137,-26,-428,-79,-556,-106r0,-7v109,-85,278,-213,345,-269r0,-5r-329,-248r0,-7v129,-33,371,-87,513,-121r16,79v-116,23,-248,51,-364,73r0,4","w":642},"\u03a4":{"d":"382,0r-108,0v7,-58,6,-465,6,-626v-115,0,-257,5,-283,9r0,-85v230,17,426,17,656,0r0,85v-14,-4,-199,-9,-283,-9r0,165v0,203,10,441,12,461","w":650},"\u03a5":{"d":"695,-638v-150,43,-309,231,-306,421r0,94v0,14,3,103,5,123r-100,0r5,-217v0,-130,-61,-235,-129,-310v-40,-45,-93,-88,-147,-111r41,-78v64,33,130,88,156,117v49,53,105,136,132,215v52,-154,168,-274,313,-332","w":684},"\u03a6":{"d":"467,-24v0,17,1,54,2,86r-92,0v1,-34,3,-59,3,-84v-169,-12,-322,-128,-322,-312v0,-215,161,-337,323,-355v-1,-14,-2,-44,-3,-75r92,0v-1,33,-3,60,-3,72v155,8,322,124,322,319v0,190,-125,326,-322,349xm380,-93r1,-526v-121,23,-229,115,-229,280v0,156,113,230,228,246xm467,-94v111,-19,228,-88,228,-273v0,-174,-121,-242,-229,-253","w":847},"\u03a7":{"d":"120,18r-65,-66v24,-23,239,-274,270,-311r-236,-276r73,-67v26,36,150,194,223,282v34,-38,212,-248,240,-284r68,68v-35,33,-235,242,-258,275v30,33,234,264,270,309r-72,68v-23,-32,-233,-289,-258,-317v-12,15,-242,301,-255,319","w":757},"\u03a8":{"d":"688,-685r90,18v-16,60,-25,128,-43,215v-35,168,-131,263,-282,275v1,79,2,163,3,177r-94,0v1,-32,2,-91,3,-176v-153,-8,-251,-110,-280,-264v-16,-86,-32,-167,-49,-234r92,-18v5,51,26,174,42,247v30,138,112,195,196,199r-3,-476r92,0r-3,476v85,-7,167,-52,201,-218v15,-75,29,-177,35,-221","w":811},"\u2126":{"d":"849,-75r4,83v-33,-2,-337,-7,-357,-8r-2,-17v85,-52,202,-196,202,-358v0,-173,-111,-267,-239,-267v-172,0,-265,140,-265,297v0,142,84,266,157,330r-3,15v-20,1,-290,4,-335,3r4,-81v54,4,150,6,188,5r2,-8v-43,-40,-110,-146,-110,-263v0,-192,140,-372,371,-372v184,0,326,131,326,330v0,140,-69,253,-143,313r2,6v47,-1,137,-2,198,-8","w":883},"\u0386":{"d":"102,19r-82,-52v57,-96,340,-667,369,-702v88,142,325,593,393,697r-85,56v-20,-38,-126,-243,-137,-259r-347,14v-12,19,-94,212,-111,246xm247,-293r283,-12v-11,-22,-134,-255,-144,-271v-15,22,-130,267,-139,283xm108,-536r-20,-176r82,-4r-18,181","w":800},"\u0388":{"d":"480,-76r4,86v-16,0,-317,-10,-337,-10r3,-424v0,-16,-2,-257,-3,-276v24,0,285,-15,317,-19r4,79v-32,0,-212,5,-228,5r0,254v18,0,146,-5,195,-11r3,79v-22,0,-178,-4,-198,-4r0,244v24,0,158,3,240,-3xm-1,-536r-20,-176r82,-4r-18,181","w":574},"\u0389":{"d":"244,0r-97,0r3,-412v0,-17,-3,-264,-5,-288r100,0r-5,318r446,-19r-4,-299r102,0v-3,24,-8,294,-8,318r4,382r-100,0v3,-34,6,-212,6,-231r0,-104r-446,19xm-1,-536r-20,-176r82,-4r-18,181","w":926},"\u038a":{"d":"245,-700v-7,108,-6,579,-1,700r-97,0r3,-412v0,-17,-3,-264,-5,-288r100,0xm-1,-536r-20,-176r82,-4r-18,181","w":390},"\u03aa":{"d":"245,-700v-7,108,-6,579,-1,700r-97,0r3,-412v0,-17,-3,-264,-5,-288r100,0xm85,-765r-64,-64r64,-63r64,63xm305,-765r-64,-64r64,-63r64,63","w":390},"\u038c":{"d":"420,16v-218,0,-342,-154,-342,-330v0,-222,157,-402,398,-402v189,0,332,125,332,341v0,156,-104,391,-388,391xm429,-58v150,0,282,-115,282,-312v0,-179,-118,-272,-249,-272v-179,0,-288,142,-288,313v0,149,98,271,255,271xm0,-536r-20,-176r82,-4r-18,181","w":869},"\u038e":{"d":"787,-638v-150,43,-309,231,-306,421r0,94v0,14,3,103,5,123r-100,0r5,-217v0,-130,-61,-235,-129,-310v-40,-45,-93,-88,-147,-111r41,-78v64,33,130,88,156,117v49,53,105,136,132,215v52,-154,168,-274,313,-332xm0,-536r-20,-176r82,-4r-18,181","w":773},"\u03ab":{"d":"695,-638v-150,43,-309,231,-306,421r0,94v0,14,3,103,5,123r-100,0r5,-217v0,-130,-61,-235,-129,-310v-40,-45,-93,-88,-147,-111r41,-78v64,33,130,88,156,117v49,53,105,136,132,215v52,-154,168,-274,313,-332xm247,-765r-64,-64r64,-63r64,63xm467,-765r-64,-64r64,-63r64,63","w":684},"\u038f":{"d":"19,-536r-20,-176r82,-4r-18,181xm668,-67v42,-1,132,-2,203,-8r4,83v-5,0,-347,-7,-367,-8r-2,-15v87,-49,201,-198,201,-360v0,-173,-111,-267,-239,-267v-176,0,-265,136,-265,301v0,142,85,262,158,326r-3,15v-20,1,-338,3,-338,3r4,-83v57,6,153,8,193,7r2,-8v-46,-40,-112,-142,-112,-259v0,-202,135,-376,371,-376v184,0,326,131,326,330v0,136,-66,253,-138,313","w":908},"\u03b1":{"d":"91,18r-77,-44v48,-85,308,-566,328,-599r2,0v77,121,293,504,352,593r-81,49v-16,-32,-110,-200,-119,-215r-309,12v-12,27,-82,175,-96,204xm221,-249r244,-10v-10,-19,-115,-211,-124,-225v-13,20,-112,221,-120,235","w":710},"\u03b2":{"d":"132,-315r0,-94v0,-25,-2,-168,-5,-186v48,0,108,0,144,3v183,14,212,83,212,130v0,33,-23,97,-121,135r0,2v67,9,149,54,149,130v4,118,-153,205,-384,200v5,-47,5,-303,5,-320xm216,-283r0,223v101,-7,202,-44,202,-130v0,-66,-89,-98,-202,-93xm216,-536r0,199v99,-1,179,-57,179,-114v0,-76,-115,-86,-179,-85","w":580},"\u03b3":{"d":"227,0r-99,0r4,-348v0,-20,0,-202,-8,-247v23,0,293,-9,322,-9r0,80v-97,-4,-205,-4,-227,-4r0,235v0,107,4,274,8,293","w":492},"\u03b4":{"d":"688,1r-1,3v-72,-4,-206,-4,-350,-4v-112,1,-231,0,-334,2r-1,-3v46,-73,269,-513,339,-621v67,112,287,533,347,623xm340,-465r-204,386v39,3,376,5,411,-1","w":682},"\u03b5":{"d":"448,-67r3,76v-30,0,-304,-9,-322,-9r3,-360v0,-14,-2,-219,-3,-235v22,0,259,-13,304,-16r4,72v-39,0,-203,4,-218,4r0,208v17,0,133,-4,188,-9r3,73r-191,-3r0,202v22,0,144,2,229,-3","w":528},"\u03b6":{"d":"77,-538r4,-73v51,7,477,16,487,22r-393,529v49,0,349,-3,370,-6r-3,75v-19,-2,-474,-5,-512,-11v38,-40,380,-505,400,-532v-35,0,-336,-4,-353,-4","w":601},"\u03b7":{"d":"223,0r-94,0r3,-350v0,-15,-3,-225,-5,-245r97,0r-5,266r385,-16r-3,-250r97,0r-7,355v0,11,2,224,4,240r-96,0r5,-282r-385,16","w":823},"\u03b8":{"d":"370,14v-201,0,-315,-131,-315,-281v0,-188,145,-342,366,-342v175,0,306,106,306,290v0,133,-95,333,-357,333xm379,-52v137,0,256,-94,256,-262v0,-152,-106,-229,-226,-229v-165,0,-262,118,-262,263v0,128,87,228,232,228xm241,-262r-2,-71v69,1,253,-9,303,-14r6,70v-89,3,-242,10,-307,15","w":782},"\u03b9":{"d":"224,-595v-7,92,-6,492,-1,595r-94,0r3,-350v0,-15,-3,-225,-5,-245r97,0","w":352},"\u03ba":{"d":"223,9r-96,0v7,-113,5,-490,0,-613r96,0r-5,340v0,66,3,256,5,273xm607,-60r-62,68v-11,-12,-281,-279,-320,-321v15,-14,275,-257,296,-279r53,65v-36,28,-196,163,-245,208v28,33,242,227,278,259","w":658},"\u03bb":{"d":"91,18r-77,-44v48,-85,275,-510,328,-599r2,0v77,121,293,504,352,593r-81,49v-91,-161,-191,-358,-271,-492v-75,140,-153,287,-253,493","w":710},"\u03bd":{"d":"193,6r-92,-6v5,-64,30,-541,34,-629r5,0v26,28,443,448,471,475v0,-24,2,-417,3,-445r89,4v-4,51,-21,399,-25,613r-4,0v-28,-23,-461,-462,-477,-472v2,16,-5,432,-4,460","w":803},"\u03be":{"d":"114,-515r-3,-74v106,1,333,-5,471,-10r5,76v-124,0,-350,4,-473,8xm89,-3r2,-75v147,6,334,9,508,1r3,77v-123,1,-393,-3,-513,-3xm140,-259r-3,-73v102,3,329,-6,409,-8r4,75v-65,-2,-292,4,-410,6","w":679},"\u03bf":{"d":"363,14v-199,0,-308,-131,-308,-281v0,-189,139,-342,359,-342v176,0,305,107,305,290v0,133,-94,333,-356,333xm371,-52v137,0,255,-95,255,-263v0,-152,-106,-228,-225,-228v-159,0,-254,118,-254,263v0,127,85,228,224,228","w":774},"\u03c0":{"d":"782,-611r0,73v-17,-1,-51,-3,-89,-5r-1,298v0,11,2,229,6,245r-94,0r2,-395v0,-37,-1,-131,-2,-148v-57,0,-295,3,-357,5v-7,136,-4,402,-1,538r-93,0r3,-358v0,-14,-1,-139,-2,-177v-35,2,-69,5,-89,6r0,-71v87,0,297,0,342,-1v40,-1,269,-4,375,-10","w":859},"\u03c1":{"d":"219,0r-91,0r4,-395v0,-20,-2,-187,-2,-200v38,0,123,1,180,10v122,19,197,74,197,164v0,122,-119,215,-289,245xm218,-528r0,286v108,-21,197,-71,197,-169v0,-31,-20,-115,-197,-117","w":560},"\u03c3":{"d":"464,-306r0,12r-265,189r0,4r355,51r-16,75r-510,-88r0,-8r317,-223r0,-4r-302,-205r0,-6r470,-102r18,73r-321,59r0,4","w":593},"\u03c4":{"d":"338,0r-104,0v7,-45,6,-391,6,-524v-103,0,-232,4,-245,8r0,-81v189,14,385,15,575,0r0,81v-2,-4,-170,-8,-243,-8r0,132v0,173,9,375,11,392","w":565},"\u03c5":{"d":"600,-533v-120,34,-272,193,-264,352r0,76v0,12,3,88,5,105r-96,0r4,-181v-1,-170,-120,-293,-237,-350r37,-73v48,24,108,69,131,94v44,45,97,114,120,183v44,-128,155,-233,274,-279","w":585},"\u03c6":{"d":"455,77r-90,0v1,-31,3,-53,3,-76v-167,-11,-316,-117,-316,-284v0,-196,158,-307,317,-323v-1,-13,-2,-40,-3,-68r91,0v-2,30,-4,54,-4,65v151,7,317,113,317,291v0,172,-124,296,-317,317v0,16,1,49,2,78xm368,-64r1,-478v-119,21,-224,104,-224,254v0,142,110,210,223,224xm452,-543r1,478v109,-17,224,-80,224,-248v0,-158,-118,-220,-225,-230","w":819},"\u03c7":{"d":"98,18r-63,-59v24,-19,216,-232,244,-264r-211,-232r66,-63v24,31,133,165,199,241v31,-33,188,-210,214,-240r61,60v-29,28,-207,204,-229,232r243,263r-69,61r-229,-271v-10,15,-210,256,-226,272","w":659},"\u03c8":{"d":"642,-578r84,15v-16,51,-24,109,-41,182v-32,142,-122,222,-262,232v1,66,3,137,4,149r-89,0v1,-27,2,-77,3,-148v-141,-7,-233,-93,-259,-223v-16,-73,-30,-141,-46,-197r86,-16v5,43,24,147,39,208v28,117,104,166,181,166r-3,-399r87,0v-5,62,-4,290,-4,399v79,-3,155,-41,188,-181v13,-63,26,-150,32,-187","w":759},"\u03c9":{"d":"795,-71r4,78v-23,3,-315,-6,-334,-7r-2,-14v79,-44,187,-167,187,-305v0,-147,-102,-224,-222,-224v-161,0,-246,116,-246,250v0,121,77,226,146,281r-3,12v-19,1,-302,4,-314,3r3,-77v51,3,141,5,168,4r3,-6v-33,-27,-96,-117,-96,-216v0,-164,132,-317,348,-317v172,0,306,112,306,281v0,119,-65,215,-127,258r3,5v36,0,119,-1,176,-6","w":829},"\u03ac":{"d":"91,18r-77,-44v48,-85,308,-566,328,-599r2,0v77,121,293,504,352,593r-81,49v-16,-32,-110,-200,-119,-215r-309,12v-12,27,-82,175,-96,204xm221,-249r244,-10v-10,-19,-115,-211,-124,-225v-13,20,-112,221,-120,235xm94,-431r-20,-176r82,-4r-18,181","w":710},"\u03ad":{"d":"448,-67r3,76v-30,0,-304,-9,-322,-9r3,-360v0,-14,-2,-219,-3,-235v22,0,259,-13,304,-16r4,72v-39,0,-203,4,-218,4r0,208v17,0,133,-4,188,-9r3,73r-191,-3r0,202v22,0,144,2,229,-3xm3,-431r-20,-176r82,-4r-18,181","w":528},"\u03ae":{"d":"223,0r-94,0r3,-350v0,-15,-3,-225,-5,-245r97,0r-5,266r385,-16r-3,-250r97,0r-7,355v0,11,2,224,4,240r-96,